{"sizes":[784,150,10],"layers":[{"0":{},"1":{},"2":{},"3":{},"4":{},"5":{},"6":{},"7":{},"8":{},"9":{},"10":{},"11":{},"12":{},"13":{},"14":{},"15":{},"16":{},"17":{},"18":{},"19":{},"20":{},"21":{},"22":{},"23":{},"24":{},"25":{},"26":{},"27":{},"28":{},"29":{},"30":{},"31":{},"32":{},"33":{},"34":{},"35":{},"36":{},"37":{},"38":{},"39":{},"40":{},"41":{},"42":{},"43":{},"44":{},"45":{},"46":{},"47":{},"48":{},"49":{},"50":{},"51":{},"52":{},"53":{},"54":{},"55":{},"56":{},"57":{},"58":{},"59":{},"60":{},"61":{},"62":{},"63":{},"64":{},"65":{},"66":{},"67":{},"68":{},"69":{},"70":{},"71":{},"72":{},"73":{},"74":{},"75":{},"76":{},"77":{},"78":{},"79":{},"80":{},"81":{},"82":{},"83":{},"84":{},"85":{},"86":{},"87":{},"88":{},"89":{},"90":{},"91":{},"92":{},"93":{},"94":{},"95":{},"96":{},"97":{},"98":{},"99":{},"100":{},"101":{},"102":{},"103":{},"104":{},"105":{},"106":{},"107":{},"108":{},"109":{},"110":{},"111":{},"112":{},"113":{},"114":{},"115":{},"116":{},"117":{},"118":{},"119":{},"120":{},"121":{},"122":{},"123":{},"124":{},"125":{},"126":{},"127":{},"128":{},"129":{},"130":{},"131":{},"132":{},"133":{},"134":{},"135":{},"136":{},"137":{},"138":{},"139":{},"140":{},"141":{},"142":{},"143":{},"144":{},"145":{},"146":{},"147":{},"148":{},"149":{},"150":{},"151":{},"152":{},"153":{},"154":{},"155":{},"156":{},"157":{},"158":{},"159":{},"160":{},"161":{},"162":{},"163":{},"164":{},"165":{},"166":{},"167":{},"168":{},"169":{},"170":{},"171":{},"172":{},"173":{},"174":{},"175":{},"176":{},"177":{},"178":{},"179":{},"180":{},"181":{},"182":{},"183":{},"184":{},"185":{},"186":{},"187":{},"188":{},"189":{},"190":{},"191":{},"192":{},"193":{},"194":{},"195":{},"196":{},"197":{},"198":{},"199":{},"200":{},"201":{},"202":{},"203":{},"204":{},"205":{},"206":{},"207":{},"208":{},"209":{},"210":{},"211":{},"212":{},"213":{},"214":{},"215":{},"216":{},"217":{},"218":{},"219":{},"220":{},"221":{},"222":{},"223":{},"224":{},"225":{},"226":{},"227":{},"228":{},"229":{},"230":{},"231":{},"232":{},"233":{},"234":{},"235":{},"236":{},"237":{},"238":{},"239":{},"240":{},"241":{},"242":{},"243":{},"244":{},"245":{},"246":{},"247":{},"248":{},"249":{},"250":{},"251":{},"252":{},"253":{},"254":{},"255":{},"256":{},"257":{},"258":{},"259":{},"260":{},"261":{},"262":{},"263":{},"264":{},"265":{},"266":{},"267":{},"268":{},"269":{},"270":{},"271":{},"272":{},"273":{},"274":{},"275":{},"276":{},"277":{},"278":{},"279":{},"280":{},"281":{},"282":{},"283":{},"284":{},"285":{},"286":{},"287":{},"288":{},"289":{},"290":{},"291":{},"292":{},"293":{},"294":{},"295":{},"296":{},"297":{},"298":{},"299":{},"300":{},"301":{},"302":{},"303":{},"304":{},"305":{},"306":{},"307":{},"308":{},"309":{},"310":{},"311":{},"312":{},"313":{},"314":{},"315":{},"316":{},"317":{},"318":{},"319":{},"320":{},"321":{},"322":{},"323":{},"324":{},"325":{},"326":{},"327":{},"328":{},"329":{},"330":{},"331":{},"332":{},"333":{},"334":{},"335":{},"336":{},"337":{},"338":{},"339":{},"340":{},"341":{},"342":{},"343":{},"344":{},"345":{},"346":{},"347":{},"348":{},"349":{},"350":{},"351":{},"352":{},"353":{},"354":{},"355":{},"356":{},"357":{},"358":{},"359":{},"360":{},"361":{},"362":{},"363":{},"364":{},"365":{},"366":{},"367":{},"368":{},"369":{},"370":{},"371":{},"372":{},"373":{},"374":{},"375":{},"376":{},"377":{},"378":{},"379":{},"380":{},"381":{},"382":{},"383":{},"384":{},"385":{},"386":{},"387":{},"388":{},"389":{},"390":{},"391":{},"392":{},"393":{},"394":{},"395":{},"396":{},"397":{},"398":{},"399":{},"400":{},"401":{},"402":{},"403":{},"404":{},"405":{},"406":{},"407":{},"408":{},"409":{},"410":{},"411":{},"412":{},"413":{},"414":{},"415":{},"416":{},"417":{},"418":{},"419":{},"420":{},"421":{},"422":{},"423":{},"424":{},"425":{},"426":{},"427":{},"428":{},"429":{},"430":{},"431":{},"432":{},"433":{},"434":{},"435":{},"436":{},"437":{},"438":{},"439":{},"440":{},"441":{},"442":{},"443":{},"444":{},"445":{},"446":{},"447":{},"448":{},"449":{},"450":{},"451":{},"452":{},"453":{},"454":{},"455":{},"456":{},"457":{},"458":{},"459":{},"460":{},"461":{},"462":{},"463":{},"464":{},"465":{},"466":{},"467":{},"468":{},"469":{},"470":{},"471":{},"472":{},"473":{},"474":{},"475":{},"476":{},"477":{},"478":{},"479":{},"480":{},"481":{},"482":{},"483":{},"484":{},"485":{},"486":{},"487":{},"488":{},"489":{},"490":{},"491":{},"492":{},"493":{},"494":{},"495":{},"496":{},"497":{},"498":{},"499":{},"500":{},"501":{},"502":{},"503":{},"504":{},"505":{},"506":{},"507":{},"508":{},"509":{},"510":{},"511":{},"512":{},"513":{},"514":{},"515":{},"516":{},"517":{},"518":{},"519":{},"520":{},"521":{},"522":{},"523":{},"524":{},"525":{},"526":{},"527":{},"528":{},"529":{},"530":{},"531":{},"532":{},"533":{},"534":{},"535":{},"536":{},"537":{},"538":{},"539":{},"540":{},"541":{},"542":{},"543":{},"544":{},"545":{},"546":{},"547":{},"548":{},"549":{},"550":{},"551":{},"552":{},"553":{},"554":{},"555":{},"556":{},"557":{},"558":{},"559":{},"560":{},"561":{},"562":{},"563":{},"564":{},"565":{},"566":{},"567":{},"568":{},"569":{},"570":{},"571":{},"572":{},"573":{},"574":{},"575":{},"576":{},"577":{},"578":{},"579":{},"580":{},"581":{},"582":{},"583":{},"584":{},"585":{},"586":{},"587":{},"588":{},"589":{},"590":{},"591":{},"592":{},"593":{},"594":{},"595":{},"596":{},"597":{},"598":{},"599":{},"600":{},"601":{},"602":{},"603":{},"604":{},"605":{},"606":{},"607":{},"608":{},"609":{},"610":{},"611":{},"612":{},"613":{},"614":{},"615":{},"616":{},"617":{},"618":{},"619":{},"620":{},"621":{},"622":{},"623":{},"624":{},"625":{},"626":{},"627":{},"628":{},"629":{},"630":{},"631":{},"632":{},"633":{},"634":{},"635":{},"636":{},"637":{},"638":{},"639":{},"640":{},"641":{},"642":{},"643":{},"644":{},"645":{},"646":{},"647":{},"648":{},"649":{},"650":{},"651":{},"652":{},"653":{},"654":{},"655":{},"656":{},"657":{},"658":{},"659":{},"660":{},"661":{},"662":{},"663":{},"664":{},"665":{},"666":{},"667":{},"668":{},"669":{},"670":{},"671":{},"672":{},"673":{},"674":{},"675":{},"676":{},"677":{},"678":{},"679":{},"680":{},"681":{},"682":{},"683":{},"684":{},"685":{},"686":{},"687":{},"688":{},"689":{},"690":{},"691":{},"692":{},"693":{},"694":{},"695":{},"696":{},"697":{},"698":{},"699":{},"700":{},"701":{},"702":{},"703":{},"704":{},"705":{},"706":{},"707":{},"708":{},"709":{},"710":{},"711":{},"712":{},"713":{},"714":{},"715":{},"716":{},"717":{},"718":{},"719":{},"720":{},"721":{},"722":{},"723":{},"724":{},"725":{},"726":{},"727":{},"728":{},"729":{},"730":{},"731":{},"732":{},"733":{},"734":{},"735":{},"736":{},"737":{},"738":{},"739":{},"740":{},"741":{},"742":{},"743":{},"744":{},"745":{},"746":{},"747":{},"748":{},"749":{},"750":{},"751":{},"752":{},"753":{},"754":{},"755":{},"756":{},"757":{},"758":{},"759":{},"760":{},"761":{},"762":{},"763":{},"764":{},"765":{},"766":{},"767":{},"768":{},"769":{},"770":{},"771":{},"772":{},"773":{},"774":{},"775":{},"776":{},"777":{},"778":{},"779":{},"780":{},"781":{},"782":{},"783":{}},{"0":{"bias":-1.2112358808517456,"weights":{"0":0.023742955178022385,"1":-0.15340787172317505,"2":-0.0040734694339334965,"3":-0.1965487152338028,"4":-0.12233241647481918,"5":-0.1301640123128891,"6":-0.11031876504421234,"7":-0.01967225782573223,"8":-0.1739940345287323,"9":0.01371382549405098,"10":-0.17268502712249756,"11":0.028623482212424278,"12":0.19214919209480286,"13":-0.1380670815706253,"14":0.09793803840875626,"15":0.16950495541095734,"16":0.12983271479606628,"17":-0.09757418930530548,"18":0.15786373615264893,"19":-0.1385147124528885,"20":0.03749488666653633,"21":-0.0012252435553818941,"22":0.17735032737255096,"23":0.18442365527153015,"24":0.043617647141218185,"25":-0.15727555751800537,"26":-0.03789885342121124,"27":0.049337491393089294,"28":0.12179509550333023,"29":0.19339369237422943,"30":-0.059736113995313644,"31":-0.11043541878461838,"32":-0.026439322158694267,"33":-0.007215405814349651,"34":0.14814816415309906,"35":-0.10513245314359665,"36":-0.06733699887990952,"37":-0.05574677884578705,"38":-0.0071241590194404125,"39":0.17247964441776276,"40":-0.0713171735405922,"41":0.020118536427617073,"42":-0.008636441081762314,"43":0.12755103409290314,"44":0.1812361478805542,"45":0.08355335891246796,"46":-0.15284422039985657,"47":-0.09022010862827301,"48":-0.1004759669303894,"49":-0.06001138687133789,"50":-0.005218041595071554,"51":0.1274370551109314,"52":-0.07947063446044922,"53":-0.10674238950014114,"54":0.17934198677539825,"55":0.11159639060497284,"56":0.052740611135959625,"57":0.13320283591747284,"58":0.12237360328435898,"59":0.04067254438996315,"60":0.15240676701068878,"61":-0.06405181437730789,"62":-0.03128127008676529,"63":0.06079848110675812,"64":0.16544069349765778,"65":-0.1344064325094223,"66":-0.04624612256884575,"67":-0.01750989630818367,"68":-0.09694242477416992,"69":-0.10296735912561417,"70":-0.0974053367972374,"71":-0.1120910495519638,"72":-0.05209890380501747,"73":0.16060423851013184,"74":-0.05648495629429817,"75":0.1794956773519516,"76":0.23419150710105896,"77":0.15249094367027283,"78":-0.1657261997461319,"79":0.15783977508544922,"80":-0.1555757224559784,"81":-0.160444438457489,"82":0.10341349989175797,"83":-0.1544262170791626,"84":-0.06385435909032822,"85":0.012261231429874897,"86":0.010160397738218307,"87":0.07676870375871658,"88":-0.10090284794569016,"89":0.0022549310233443975,"90":-0.046861547976732254,"91":0.1068430170416832,"92":-0.3183133602142334,"93":-0.3579748272895813,"94":-0.17897894978523254,"95":-0.37798091769218445,"96":-0.0941212847828865,"97":-0.35160139203071594,"98":-0.14426667988300323,"99":-0.09613794833421707,"100":-0.017887938767671585,"101":-0.15665774047374725,"102":-0.017923619598150253,"103":-0.04755188152194023,"104":0.10765675455331802,"105":0.12786667048931122,"106":0.00752441119402647,"107":-0.014041419140994549,"108":0.07531378418207169,"109":-0.016777660697698593,"110":0.14003543555736542,"111":0.1409810185432434,"112":-0.13340358436107635,"113":-0.1591956615447998,"114":0.07663046568632126,"115":-0.15174107253551483,"116":0.09633074700832367,"117":0.08765815198421478,"118":-0.1434255838394165,"119":-0.0404932014644146,"120":-0.33851322531700134,"121":-0.3141520917415619,"122":-0.5498062968254089,"123":-0.6042118668556213,"124":-0.42523983120918274,"125":-0.10199052840471268,"126":-0.13433174788951874,"127":-0.21982543170452118,"128":-0.4837656319141388,"129":-0.2772405445575714,"130":-0.4584985673427582,"131":-0.13504193723201752,"132":-0.3084843158721924,"133":-0.1313694268465042,"134":0.23032939434051514,"135":-0.016655098646879196,"136":0.05099198967218399,"137":-0.051482509821653366,"138":-0.08232097327709198,"139":0.008834436535835266,"140":0.011560526676476002,"141":0.11870621889829636,"142":-0.09156414121389389,"143":0.13190455734729767,"144":-0.10140462964773178,"145":-0.127748504281044,"146":-0.20532743632793427,"147":-0.30729758739471436,"148":-0.5542213916778564,"149":-0.647252082824707,"150":-0.8500069975852966,"151":-0.5848099589347839,"152":0.029365990310907364,"153":-0.08742431551218033,"154":0.24582932889461517,"155":-0.4269420802593231,"156":-0.5457617044448853,"157":-0.4529634714126587,"158":-0.6032524704933167,"159":-0.2995692789554596,"160":-0.2862818241119385,"161":-0.0542118176817894,"162":0.30612489581108093,"163":0.3139547109603882,"164":0.32550767064094543,"165":0.0010871640406548977,"166":-0.07952790707349777,"167":0.0411885641515255,"168":-0.09754657745361328,"169":0.07317986339330673,"170":-0.195574551820755,"171":-0.06647127121686935,"172":0.13219785690307617,"173":-0.09019892662763596,"174":0.012941000983119011,"175":-0.25788378715515137,"176":-0.805941104888916,"177":-0.7890905737876892,"178":-0.7074155211448669,"179":-0.10263413935899734,"180":0.09654019773006439,"181":0.06508003920316696,"182":-0.16298919916152954,"183":-0.5499251484870911,"184":-0.5582590699195862,"185":-0.3450371026992798,"186":-0.24829508364200592,"187":-0.15511861443519592,"188":-0.23205116391181946,"189":-0.33627375960350037,"190":0.14348851144313812,"191":0.4157445728778839,"192":0.2682102620601654,"193":0.1589713990688324,"194":-0.02898828499019146,"195":-0.010890096426010132,"196":0.0094396797940135,"197":-0.12108224630355835,"198":-0.053523845970630646,"199":-0.14654995501041412,"200":-0.14778901636600494,"201":-0.07111101597547531,"202":-0.46103906631469727,"203":-0.42557570338249207,"204":-0.8376115560531616,"205":-0.5693457722663879,"206":-0.5035631656646729,"207":-0.11986712366342545,"208":0.07604880630970001,"209":0.6772130727767944,"210":-0.2122667133808136,"211":-0.9471746683120728,"212":-0.5001478791236877,"213":-0.13532832264900208,"214":-0.29901769757270813,"215":-0.1823628842830658,"216":-0.25115907192230225,"217":-0.05766528472304344,"218":0.1727338433265686,"219":0.2923276722431183,"220":0.27225396037101746,"221":0.3589078187942505,"222":0.09106259793043137,"223":-0.11534830182790756,"224":0.12640318274497986,"225":0.16733750700950623,"226":0.12894245982170105,"227":-0.022149257361888885,"228":-0.24809607863426208,"229":-0.2886872887611389,"230":-0.23082341253757477,"231":-0.5552878975868225,"232":-0.866364598274231,"233":-0.5990169048309326,"234":-0.4802497327327728,"235":0.30044931173324585,"236":0.41169506311416626,"237":0.5863305330276489,"238":-0.17604957520961761,"239":-0.5344338417053223,"240":-0.3600800037384033,"241":-0.32440054416656494,"242":-0.16106000542640686,"243":0.24884149432182312,"244":0.09341845661401749,"245":0.14877140522003174,"246":0.46738284826278687,"247":0.5387634038925171,"248":0.2519964575767517,"249":0.3826215863227844,"250":0.034294236451387405,"251":0.21277257800102234,"252":0.1489766538143158,"253":0.025383872911334038,"254":0.04134392365813255,"255":-0.18188481032848358,"256":0.039520639926195145,"257":-0.23009471595287323,"258":-0.3093946576118469,"259":-0.4866955876350403,"260":-0.869536280632019,"261":-0.9426587224006653,"262":-0.7974237203598022,"263":0.07961112260818481,"264":1.2778514623641968,"265":0.5504610538482666,"266":-0.08305967599153519,"267":-0.4044637084007263,"268":-0.3639102280139923,"269":-0.2698616087436676,"270":0.3139176070690155,"271":0.22582828998565674,"272":0.36129334568977356,"273":0.23860952258110046,"274":0.12067809700965881,"275":0.5108158588409424,"276":0.2594517469406128,"277":0.5515155792236328,"278":0.31605827808380127,"279":0.2147478461265564,"280":0.09111163020133972,"281":-0.1359531432390213,"282":-0.015969444066286087,"283":0.14032085239887238,"284":0.1039276048541069,"285":-0.02580176293849945,"286":-0.35275375843048096,"287":-0.638569712638855,"288":-0.6909733414649963,"289":-0.5639755129814148,"290":-0.9239886403083801,"291":-0.1087174117565155,"292":0.9066968560218811,"293":0.7725970149040222,"294":0.6217781901359558,"295":-0.05110778659582138,"296":-0.3078627288341522,"297":-0.11662212014198303,"298":0.16679051518440247,"299":0.02515631727874279,"300":0.08661098778247833,"301":0.17317618429660797,"302":-0.0038852179422974586,"303":0.34224221110343933,"304":0.618280827999115,"305":0.6506574749946594,"306":0.2365112006664276,"307":-0.08956550061702728,"308":0.005061351228505373,"309":-0.19909636676311493,"310":0.0865703821182251,"311":0.043986961245536804,"312":-0.13480214774608612,"313":0.031224332749843597,"314":-0.36167678236961365,"315":-0.29990506172180176,"316":-0.2441663146018982,"317":-0.5204424262046814,"318":-0.5976157188415527,"319":-0.007961255498230457,"320":0.27672886848449707,"321":0.8969980478286743,"322":0.5201539397239685,"323":-0.472233384847641,"324":-0.2919338345527649,"325":-0.7284141778945923,"326":-0.7415798306465149,"327":-0.7142808437347412,"328":-0.4486272931098938,"329":0.07563678920269012,"330":0.04830830171704292,"331":0.2945311963558197,"332":0.2691496014595032,"333":0.3769293427467346,"334":0.25349390506744385,"335":0.1029566302895546,"336":-0.02811126783490181,"337":-0.10939295589923859,"338":0.002452733926475048,"339":0.1206621304154396,"340":0.022993197664618492,"341":-0.03778029978275299,"342":-0.3576590120792389,"343":-0.09539445489645004,"344":-0.4710078835487366,"345":-0.2759924530982971,"346":-0.3411219120025635,"347":-0.13514843583106995,"348":0.3060545325279236,"349":0.44334980845451355,"350":0.6303139925003052,"351":0.07928147912025452,"352":-0.34925946593284607,"353":-0.1344042271375656,"354":-0.3223986327648163,"355":-0.5467101335525513,"356":-0.43034374713897705,"357":-0.4356120228767395,"358":-0.5183072686195374,"359":-0.2015291303396225,"360":0.09877260029315948,"361":0.30143529176712036,"362":0.34194299578666687,"363":-0.026700789108872414,"364":0.15018999576568604,"365":-0.0036024011205881834,"366":0.17667797207832336,"367":-0.166563481092453,"368":-0.17019496858119965,"369":-0.1341284066438675,"370":-0.071759894490242,"371":-0.13488809764385223,"372":-0.3675888180732727,"373":0.08766976743936539,"374":-0.4043859541416168,"375":-0.08943364769220352,"376":0.6854426860809326,"377":0.9568619132041931,"378":0.5171607732772827,"379":0.3288595974445343,"380":0.12145467847585678,"381":0.10555259883403778,"382":-0.24606356024742126,"383":-0.16438832879066467,"384":-0.4609014391899109,"385":-0.7951017022132874,"386":-0.3951771557331085,"387":-0.18168263137340546,"388":-0.01987653598189354,"389":0.18111352622509003,"390":0.278647243976593,"391":-0.17968088388442993,"392":-0.1539081335067749,"393":0.17521995306015015,"394":0.06209004297852516,"395":0.029817301779985428,"396":-0.1606585830450058,"397":0.010332777164876461,"398":-0.22928935289382935,"399":-0.039969947189092636,"400":-0.209753155708313,"401":-0.05715436115860939,"402":-0.1056687980890274,"403":0.09197883307933807,"404":0.4677092432975769,"405":0.5779228210449219,"406":0.2504388093948364,"407":0.22589817643165588,"408":0.2174283266067505,"409":0.35379156470298767,"410":-0.031240349635481834,"411":-0.06883588433265686,"412":-0.6624178290367126,"413":-0.44099709391593933,"414":-0.324704110622406,"415":-0.20130932331085205,"416":-0.05887727811932564,"417":-0.2940002381801605,"418":0.0824442207813263,"419":-0.06677316874265671,"420":0.17904698848724365,"421":0.1915714591741562,"422":-0.05277477577328682,"423":-0.14168094098567963,"424":-0.0436592623591423,"425":-0.12811265885829926,"426":0.11651649326086044,"427":-0.14484335482120514,"428":0.07882452756166458,"429":-0.5487592220306396,"430":-0.11085645109415054,"431":-0.40489619970321655,"432":-0.4059699475765228,"433":0.21145687997341156,"434":0.572728157043457,"435":-0.21762868762016296,"436":0.2740911841392517,"437":0.29457995295524597,"438":-0.21017493307590485,"439":-0.09532856196165085,"440":0.06638398766517639,"441":-0.07488397508859634,"442":-0.4880504012107849,"443":-0.3350893557071686,"444":-0.15030410885810852,"445":-0.09611926972866058,"446":-0.05348550155758858,"447":0.05296286940574646,"448":0.0712558701634407,"449":-0.051073405891656876,"450":0.025584742426872253,"451":0.06606826186180115,"452":0.026390234008431435,"453":-0.16211925446987152,"454":-0.20841534435749054,"455":-0.11117970943450928,"456":-0.30127063393592834,"457":-0.6912678480148315,"458":-0.40671294927597046,"459":-0.24522888660430908,"460":-0.15453918278217316,"461":0.04685176908969879,"462":0.17538565397262573,"463":-0.2663045823574066,"464":-0.19965791702270508,"465":-0.10715605318546295,"466":-0.2989150583744049,"467":-0.4784925878047943,"468":0.15268686413764954,"469":-0.2052672803401947,"470":-0.38341856002807617,"471":-0.3446589410305023,"472":-0.13241177797317505,"473":-0.33451488614082336,"474":-0.19364146888256073,"475":-0.1661958545446396,"476":0.031179416924715042,"477":-0.12766754627227783,"478":0.0017286563524976373,"479":-0.2839164137840271,"480":-0.4256965219974518,"481":0.01704723946750164,"482":0.08440762758255005,"483":-0.014003362506628036,"484":-0.17968986928462982,"485":0.11568201333284378,"486":0.13664695620536804,"487":-0.03454459458589554,"488":0.008729804307222366,"489":-0.13035491108894348,"490":-0.040790241211652756,"491":0.06167466565966606,"492":-0.33903923630714417,"493":-0.3352504074573517,"494":0.03015901707112789,"495":-0.27453240752220154,"496":-0.019959822297096252,"497":-0.03870425373315811,"498":-0.426254004240036,"499":-0.3451584577560425,"500":-0.13328097760677338,"501":-0.1814567744731903,"502":0.12376715242862701,"503":-0.11148275434970856,"504":-0.1820681244134903,"505":-0.1231793537735939,"506":-0.13122239708900452,"507":-0.1214572861790657,"508":-0.3510648310184479,"509":-0.15541087090969086,"510":0.04710332676768303,"511":-0.15582245588302612,"512":0.1385619044303894,"513":0.08668621629476547,"514":0.29237449169158936,"515":0.22133773565292358,"516":0.14484132826328278,"517":-0.14523570239543915,"518":-0.1009371355175972,"519":0.0029161078855395317,"520":-0.10695898532867432,"521":0.19489984214305878,"522":0.14774712920188904,"523":-0.2824656665325165,"524":0.20692190527915955,"525":-0.2722533643245697,"526":-0.5836105346679688,"527":-0.5364869832992554,"528":-0.36671242117881775,"529":0.03754943236708641,"530":0.1098470464348793,"531":0.09471391886472702,"532":0.15267542004585266,"533":-0.017706820741295815,"534":-0.10873797535896301,"535":-0.28911060094833374,"536":-0.22844620048999786,"537":-0.03220783919095993,"538":0.0794457420706749,"539":0.05145639181137085,"540":-0.06982573121786118,"541":0.390498548746109,"542":0.3375909924507141,"543":0.4675394594669342,"544":0.3476446270942688,"545":-0.05426311120390892,"546":-0.13894708454608917,"547":-0.29281193017959595,"548":-0.29225867986679077,"549":0.24457374215126038,"550":-0.0855713039636612,"551":-0.3131064772605896,"552":0.12470490485429764,"553":-0.3670797049999237,"554":-0.5435990691184998,"555":-0.22073931992053986,"556":-0.2945692539215088,"557":-0.09626474976539612,"558":-0.07197673618793488,"559":-0.07183612883090973,"560":0.12234305590391159,"561":-0.10635975003242493,"562":-0.2855317294597626,"563":-0.3279554545879364,"564":-0.5959742665290833,"565":-0.21811443567276,"566":-0.11353898048400879,"567":0.07087717205286026,"568":0.06027945503592491,"569":-0.07055594772100449,"570":0.2939290404319763,"571":-0.012534009292721748,"572":-0.053963202983140945,"573":-0.31702324748039246,"574":-0.13940900564193726,"575":-0.1283980906009674,"576":-0.28979548811912537,"577":-0.07442966848611832,"578":0.031007597222924232,"579":0.004319116938859224,"580":-0.1880759447813034,"581":-0.03254922106862068,"582":-0.5653003454208374,"583":-0.23356105387210846,"584":-0.10993805527687073,"585":-0.15473666787147522,"586":-0.1509130597114563,"587":0.18827956914901733,"588":0.11805035918951035,"589":0.0031213448382914066,"590":-0.20641134679317474,"591":-0.3226090967655182,"592":-0.3261493444442749,"593":-0.2602839767932892,"594":-0.2471696138381958,"595":-0.029068589210510254,"596":0.30205038189888,"597":0.2606475055217743,"598":-0.06593921780586243,"599":-0.16380402445793152,"600":0.028796279802918434,"601":-0.3909793496131897,"602":-0.20927844941616058,"603":-0.4001522660255432,"604":-0.33722302317619324,"605":-0.20540937781333923,"606":0.11723308265209198,"607":0.2833385467529297,"608":0.01388587150722742,"609":-0.27252161502838135,"610":-0.41994258761405945,"611":-0.0830516517162323,"612":0.03781150281429291,"613":0.09013277292251587,"614":0.0915835052728653,"615":0.18279273808002472,"616":-0.14973758161067963,"617":-0.1120026558637619,"618":0.09709722548723221,"619":-0.052114278078079224,"620":-0.21723385155200958,"621":-0.06799234449863434,"622":-0.09355013072490692,"623":-0.025463538244366646,"624":0.3055157959461212,"625":0.0984005406498909,"626":-0.1309630274772644,"627":0.06303570419549942,"628":0.08901698887348175,"629":-0.013815747573971748,"630":-0.05026845633983612,"631":0.2187756597995758,"632":-0.021195344626903534,"633":-0.07027179002761841,"634":-0.10351715981960297,"635":0.03855285048484802,"636":0.03480953350663185,"637":-0.22719484567642212,"638":-0.24543604254722595,"639":-0.31306496262550354,"640":-0.06923520565032959,"641":0.08363308757543564,"642":0.19181786477565765,"643":-0.18563640117645264,"644":-0.1269187033176422,"645":-0.12148120999336243,"646":-0.15089012682437897,"647":-0.16119638085365295,"648":-0.23952701687812805,"649":-0.07754040509462357,"650":-0.11453624069690704,"651":-0.22420434653759003,"652":0.22754089534282684,"653":0.03359592333436012,"654":0.09237165004014969,"655":-0.020198576152324677,"656":-0.03418603166937828,"657":0.12867815792560577,"658":0.3222282826900482,"659":-0.09450273960828781,"660":-0.049000293016433716,"661":0.07030489295721054,"662":0.1960536539554596,"663":0.1648758351802826,"664":-0.10954570770263672,"665":-0.275064617395401,"666":-0.1573157012462616,"667":-0.10577445477247238,"668":0.13174763321876526,"669":-0.10135391354560852,"670":0.19452808797359467,"671":-0.14062991738319397,"672":-0.14114852249622345,"673":0.17745563387870789,"674":0.09991341084241867,"675":-0.14338842034339905,"676":-0.14078694581985474,"677":-0.012673908844590187,"678":-0.1421913504600525,"679":-0.2406398504972458,"680":0.11785205453634262,"681":0.028098221868276596,"682":0.007446294650435448,"683":-0.21489088237285614,"684":-0.13082246482372284,"685":0.18911854922771454,"686":-0.04899110645055771,"687":0.020757801830768585,"688":-0.011221910826861858,"689":0.01431221142411232,"690":-0.33178362250328064,"691":-0.3027510344982147,"692":-0.14536115527153015,"693":-0.2662874460220337,"694":0.0945635586977005,"695":0.15226638317108154,"696":0.1345059871673584,"697":0.1040535569190979,"698":0.17654110491275787,"699":-0.09313548356294632,"700":0.030902111902832985,"701":-0.0008329549455083907,"702":0.14416173100471497,"703":-0.15954050421714783,"704":-0.13675542175769806,"705":-0.18304303288459778,"706":-0.13452355563640594,"707":-0.19112782180309296,"708":-0.18287283182144165,"709":-0.10874961316585541,"710":-0.042109791189432144,"711":-0.018058378249406815,"712":-0.01949540711939335,"713":-0.13978682458400726,"714":0.16739784181118011,"715":-0.22258231043815613,"716":-0.3424111604690552,"717":-0.376086950302124,"718":-0.0959465354681015,"719":-0.2491666078567505,"720":-0.16990937292575836,"721":-0.2731022536754608,"722":0.10301868617534637,"723":-0.02110539935529232,"724":0.17910221219062805,"725":0.1892555058002472,"726":0.07987362891435623,"727":0.01941814087331295,"728":-0.11938626319169998,"729":0.19454246759414673,"730":-0.1864088475704193,"731":0.0332297720015049,"732":-0.1552472859621048,"733":0.011608833447098732,"734":-0.09638921916484833,"735":0.13477198779582977,"736":-0.05280579626560211,"737":-0.2813986539840698,"738":-0.07755562663078308,"739":-0.06487081944942474,"740":-0.06756666302680969,"741":0.021338481456041336,"742":-0.1075042113661766,"743":-0.01934945583343506,"744":-0.12698984146118164,"745":-0.32906481623649597,"746":-0.1765936017036438,"747":-0.06350255757570267,"748":0.008015104569494724,"749":0.0005667390651069582,"750":0.17772367596626282,"751":0.013211015611886978,"752":0.10865098237991333,"753":0.08001033216714859,"754":-0.004390565212816,"755":0.04027858003973961,"756":0.1306275725364685,"757":0.17700549960136414,"758":0.0929088294506073,"759":-0.019397076219320297,"760":0.08488690108060837,"761":-0.12081223726272583,"762":0.036804478615522385,"763":0.14904817938804626,"764":-0.1911027878522873,"765":-0.05152818560600281,"766":-0.2161206603050232,"767":0.14720147848129272,"768":0.03282872959971428,"769":0.066923588514328,"770":-0.0024984420742839575,"771":-0.28199297189712524,"772":0.023511800915002823,"773":0.05002698302268982,"774":-0.0902932733297348,"775":-0.009342766366899014,"776":0.1234758198261261,"777":0.1915382295846939,"778":0.021966606378555298,"779":-0.08970887959003448,"780":0.18865607678890228,"781":0.1133994609117508,"782":-0.1306062638759613,"783":-0.12301255017518997}},"1":{"bias":-0.6320465207099915,"weights":{"0":0.03406369686126709,"1":-0.17634665966033936,"2":-0.17526395618915558,"3":-0.0753483846783638,"4":0.1906496286392212,"5":0.004533903673291206,"6":0.11565373837947845,"7":-0.06706080585718155,"8":-0.05806594714522362,"9":0.1827624887228012,"10":-0.06384896486997604,"11":0.16963589191436768,"12":-0.1390472799539566,"13":0.19800330698490143,"14":-0.11046580225229263,"15":-0.17708072066307068,"16":-0.09207451343536377,"17":-0.0718105360865593,"18":0.1572451889514923,"19":0.18218214809894562,"20":-0.11758428066968918,"21":-0.194562166929245,"22":-0.060132335871458054,"23":0.16745799779891968,"24":-0.016813568770885468,"25":-0.12424520403146744,"26":-0.035242144018411636,"27":-0.06555711477994919,"28":0.17998147010803223,"29":-0.04974430426955223,"30":0.09607254713773727,"31":0.04647890105843544,"32":-0.015624056570231915,"33":0.05511895567178726,"34":0.003455934813246131,"35":-0.15926092863082886,"36":-0.00036755259498022497,"37":-0.08272182941436768,"38":0.021321067586541176,"39":0.16654442250728607,"40":0.17865918576717377,"41":0.004009004682302475,"42":-0.1939564198255539,"43":-0.18738852441310883,"44":0.11476943641901016,"45":-0.14432580769062042,"46":0.12198571115732193,"47":0.17251424491405487,"48":-0.03925495594739914,"49":-0.03713787719607353,"50":0.01943734660744667,"51":0.1482156217098236,"52":0.003867617342621088,"53":0.009026533924043179,"54":0.020526530221104622,"55":-0.14369435608386993,"56":-0.19856633245944977,"57":-0.0632699728012085,"58":0.022911105304956436,"59":0.002376284683123231,"60":0.040090855211019516,"61":0.11969674378633499,"62":-0.1421053111553192,"63":0.1401737481355667,"64":-0.12727314233779907,"65":0.016095461323857307,"66":0.015044517815113068,"67":0.06464403122663498,"68":0.16963617503643036,"69":-0.2010488510131836,"70":0.1166570708155632,"71":0.1387520730495453,"72":-0.08861473947763443,"73":-0.002311093034222722,"74":-0.17705565690994263,"75":-0.04821015149354935,"76":0.06326256692409515,"77":-0.04106106981635094,"78":-0.16439302265644073,"79":-0.17561796307563782,"80":-0.10742559283971786,"81":0.10645190626382828,"82":-0.010557113215327263,"83":-0.06946580857038498,"84":0.18593493103981018,"85":0.034514281898736954,"86":0.06161109358072281,"87":-0.09005249291658401,"88":0.13258220255374908,"89":-0.15087074041366577,"90":0.1846604347229004,"91":0.1621372103691101,"92":0.09243004769086838,"93":0.007989464327692986,"94":-0.18680161237716675,"95":-0.08511711657047272,"96":-0.09319830685853958,"97":0.004416026175022125,"98":-0.15900777280330658,"99":-0.08868458867073059,"100":-0.1476193517446518,"101":-0.13165901601314545,"102":-0.0016901231138035655,"103":0.09013399481773376,"104":-0.06467758864164352,"105":-0.020357996225357056,"106":0.14527764916419983,"107":0.005347721744328737,"108":-0.07605382055044174,"109":-0.05144273489713669,"110":-0.047129981219768524,"111":0.02776847779750824,"112":0.04522640258073807,"113":-0.15590837597846985,"114":0.07450789213180542,"115":-0.020315414294600487,"116":0.1474268138408661,"117":-0.11289168894290924,"118":0.044013503938913345,"119":-0.008874286897480488,"120":0.1346789449453354,"121":0.1124037504196167,"122":-0.14549104869365692,"123":0.043146129697561264,"124":-0.04042325168848038,"125":-0.07980909198522568,"126":-0.36146023869514465,"127":-0.46142449975013733,"128":-0.2908788323402405,"129":-0.05814535170793533,"130":-0.0045582205057144165,"131":0.12248958647251129,"132":-0.15402331948280334,"133":0.03999942168593407,"134":-0.08276011794805527,"135":-0.025766724720597267,"136":-0.03160582482814789,"137":0.016089899465441704,"138":-0.012819142080843449,"139":-0.1994915008544922,"140":0.11900175362825394,"141":-0.09897015243768692,"142":-0.08037733286619186,"143":-0.14145314693450928,"144":0.16103969514369965,"145":0.06374375522136688,"146":-0.05331653356552124,"147":0.13958193361759186,"148":0.18519873917102814,"149":0.1894608736038208,"150":-0.11561145633459091,"151":-0.06253458559513092,"152":0.1379893273115158,"153":-0.130432590842247,"154":-0.44892263412475586,"155":-0.880209743976593,"156":-0.6040342450141907,"157":-0.4823693037033081,"158":-0.23242096602916718,"159":0.16955585777759552,"160":-0.10368932038545609,"161":0.18835686147212982,"162":0.07823947817087173,"163":0.18751771748065948,"164":-0.052385084331035614,"165":0.09636996686458588,"166":-0.000515941996127367,"167":-0.0696120485663414,"168":-0.038234177976846695,"169":0.03280206397175789,"170":-0.13264985382556915,"171":-0.03361176699399948,"172":-0.07713967561721802,"173":0.14132018387317657,"174":-0.020895253866910934,"175":0.25260815024375916,"176":0.3474465608596802,"177":0.12681415677070618,"178":-0.036232005804777145,"179":0.07295837998390198,"180":0.3979412019252777,"181":0.3805764615535736,"182":-0.2133467048406601,"183":-0.9314805865287781,"184":-0.3117585778236389,"185":-0.15865792334079742,"186":0.19595463573932648,"187":0.028302451595664024,"188":-0.2813832461833954,"189":0.17808891832828522,"190":-0.09222570061683655,"191":-0.028570981696248055,"192":-0.06648804992437363,"193":-0.11976323276758194,"194":0.062032412737607956,"195":-0.02864423394203186,"196":-0.06509048491716385,"197":-0.06098410114645958,"198":-0.0693507194519043,"199":0.07004174590110779,"200":-0.09823330491781235,"201":-0.042366549372673035,"202":0.07528416812419891,"203":0.06735657155513763,"204":0.11077171564102173,"205":0.22564148902893066,"206":-0.04841700568795204,"207":0.13147670030593872,"208":0.19966591894626617,"209":0.21323741972446442,"210":-0.029081303626298904,"211":-0.33935847878456116,"212":-0.14517351984977722,"213":0.044005271047353745,"214":0.013493886217474937,"215":0.007412094622850418,"216":-0.0014941847184672952,"217":-0.14554905891418457,"218":0.10189277678728104,"219":0.12258151918649673,"220":0.013537917286157608,"221":0.20413392782211304,"222":0.13206496834754944,"223":-0.1356215924024582,"224":-0.083993099629879,"225":0.16260820627212524,"226":-0.18753203749656677,"227":-0.15944822132587433,"228":-0.18380898237228394,"229":0.08967877179384232,"230":0.03122447244822979,"231":0.1240026131272316,"232":-0.08705195784568787,"233":0.19196578860282898,"234":0.008316131308674812,"235":0.1272009313106537,"236":0.051438190042972565,"237":-0.13865423202514648,"238":-0.20457863807678223,"239":-0.05236363038420677,"240":0.10169148445129395,"241":-0.36491647362709045,"242":0.02631070837378502,"243":-0.17345264554023743,"244":-0.18483828008174896,"245":-0.06867385655641556,"246":0.02501543238759041,"247":-0.0744815468788147,"248":0.13023322820663452,"249":0.2769477367401123,"250":-0.07462777942419052,"251":0.045898545533418655,"252":-0.004905897658318281,"253":0.1900261491537094,"254":-0.07592099905014038,"255":-0.042748741805553436,"256":-0.08604171127080917,"257":-0.014195903204381466,"258":-0.16338607668876648,"259":0.046441011130809784,"260":-0.17005543410778046,"261":-0.00782764796167612,"262":0.03010789304971695,"263":-0.008569718338549137,"264":-0.11961019039154053,"265":-0.45063942670822144,"266":-0.40277788043022156,"267":0.041095513850450516,"268":0.27260759472846985,"269":-0.007396293338388205,"270":0.0022098554763942957,"271":0.0950787290930748,"272":0.5260278582572937,"273":0.3799920082092285,"274":0.3879098892211914,"275":0.23608335852622986,"276":0.19910883903503418,"277":0.2504912316799164,"278":0.059484392404556274,"279":-0.10083751380443573,"280":-0.0014445000560954213,"281":-0.021342776715755463,"282":0.12339266389608383,"283":-0.0377185083925724,"284":-0.24672739207744598,"285":0.010142330080270767,"286":-0.07973818480968475,"287":-0.30916133522987366,"288":-0.15497758984565735,"289":-0.3239842355251312,"290":-0.1175602450966835,"291":0.10955273360013962,"292":-0.3337240517139435,"293":-0.7108187675476074,"294":-0.5657816529273987,"295":-0.20467112958431244,"296":0.2997186481952667,"297":0.4198249578475952,"298":0.22770102322101593,"299":0.1868240386247635,"300":0.02636018395423889,"301":0.21631458401679993,"302":0.03945670649409294,"303":0.2915872037410736,"304":0.10201121866703033,"305":0.1642836034297943,"306":0.16612698137760162,"307":-0.1049157902598381,"308":-0.050707925111055374,"309":0.030960604548454285,"310":-0.12126106768846512,"311":-0.047761499881744385,"312":-0.1641779989004135,"313":-0.2881067395210266,"314":-0.2399335354566574,"315":-0.3187049925327301,"316":-0.0681946873664856,"317":0.05537384748458862,"318":0.24482055008411407,"319":-0.24991340935230255,"320":-0.33146247267723083,"321":-0.6129666566848755,"322":-0.6088338494300842,"323":0.0487460121512413,"324":0.2428782880306244,"325":0.49217453598976135,"326":0.38585227727890015,"327":0.15031865239143372,"328":-0.019992293789982796,"329":0.03786816820502281,"330":0.17445196211338043,"331":0.0785670280456543,"332":0.3295314610004425,"333":-0.03172307088971138,"334":-0.04219520837068558,"335":0.05304766818881035,"336":0.06835342943668365,"337":0.17093320190906525,"338":0.010954886674880981,"339":0.059073466807603836,"340":-0.2218281626701355,"341":0.01529722474515438,"342":-0.3047104477882385,"343":0.01840793713927269,"344":0.06715940684080124,"345":0.09837506711483002,"346":0.0033203293569386005,"347":-0.07313720881938934,"348":-0.33985862135887146,"349":-0.45617884397506714,"350":-0.44054266810417175,"351":-0.07737168669700623,"352":0.03509659692645073,"353":-0.03591111674904823,"354":0.14644336700439453,"355":-0.04282897710800171,"356":0.3149057924747467,"357":0.025472357869148254,"358":0.08760577440261841,"359":0.15753620862960815,"360":0.1791655719280243,"361":-0.18902587890625,"362":0.11030031740665436,"363":-0.06864921003580093,"364":0.16881167888641357,"365":0.16262617707252502,"366":-0.07558845728635788,"367":0.13211998343467712,"368":0.1283429116010666,"369":-0.3101039230823517,"370":-0.2858313322067261,"371":-0.16884072124958038,"372":-0.0077628460712730885,"373":0.18267913162708282,"374":0.42730996012687683,"375":0.04656573757529259,"376":-0.463005930185318,"377":-0.4762730300426483,"378":-0.5616636872291565,"379":-0.07218696922063828,"380":-0.23187720775604248,"381":-0.10145358741283417,"382":-0.104245625436306,"383":-0.0891173705458641,"384":0.14689575135707855,"385":-0.1966947764158249,"386":-0.1045885756611824,"387":0.0155329005792737,"388":0.06241438537836075,"389":-0.10662048310041428,"390":-0.23505277931690216,"391":0.0958971381187439,"392":-0.04040714353322983,"393":-0.050146251916885376,"394":0.035976964980363846,"395":-0.09856817871332169,"396":0.08472324907779694,"397":-0.09942974895238876,"398":-0.32628604769706726,"399":0.10079531371593475,"400":0.03706268593668938,"401":-0.20928367972373962,"402":-0.13179470598697662,"403":-0.0774858146905899,"404":-0.43707993626594543,"405":-0.032403744757175446,"406":-0.1273258775472641,"407":-0.24096983671188354,"408":-0.08200761675834656,"409":-0.15766313672065735,"410":-0.06430714577436447,"411":-0.12045662105083466,"412":-0.31687426567077637,"413":-0.2994958162307739,"414":-0.36420300602912903,"415":-0.2835839092731476,"416":-0.1693645864725113,"417":-0.26764824986457825,"418":-0.24688684940338135,"419":-0.05580012500286102,"420":-0.059237267822027206,"421":-0.03000629134476185,"422":0.003648610319942236,"423":-0.19328750669956207,"424":-0.24370135366916656,"425":-0.3583662509918213,"426":-0.25081735849380493,"427":0.020418796688318253,"428":0.20434166491031647,"429":0.11280170828104019,"430":-0.2697136700153351,"431":-0.2865898311138153,"432":-0.1323436051607132,"433":0.14746840298175812,"434":0.0944177657365799,"435":0.004924786277115345,"436":0.06512690335512161,"437":-0.01799352839589119,"438":-0.2964438498020172,"439":-0.20936468243598938,"440":-0.4322439134120941,"441":-0.06213748827576637,"442":-0.3209235966205597,"443":-0.2000844031572342,"444":-0.04865498095750809,"445":-0.20736463367938995,"446":-0.06878948211669922,"447":0.014438788406550884,"448":-0.02924429066479206,"449":0.11381212621927261,"450":0.08839888125658035,"451":-0.08170909434556961,"452":-0.06611151993274689,"453":-0.11844395846128464,"454":-0.02015693485736847,"455":0.025040877982974052,"456":0.15231148898601532,"457":0.15611791610717773,"458":-0.1542208194732666,"459":-0.2640889883041382,"460":0.02699887752532959,"461":0.42977768182754517,"462":0.040749356150627136,"463":-0.25557461380958557,"464":-0.265255331993103,"465":0.004928241949528456,"466":0.08819209039211273,"467":0.0633520632982254,"468":0.11029588431119919,"469":-0.02859020233154297,"470":-0.16411925852298737,"471":-0.2418970912694931,"472":-0.17256389558315277,"473":0.006661278195679188,"474":-0.25282591581344604,"475":0.11530860513448715,"476":-0.02487955428659916,"477":0.16271062195301056,"478":0.07160640507936478,"479":-0.22314170002937317,"480":-0.31369462609291077,"481":-0.33003586530685425,"482":-0.09953002631664276,"483":-0.13297846913337708,"484":0.03262482210993767,"485":-0.16731607913970947,"486":-0.06656181812286377,"487":0.32174304127693176,"488":0.084137462079525,"489":0.4045547842979431,"490":0.15051420032978058,"491":-0.10304442048072815,"492":-0.24591799080371857,"493":0.015899240970611572,"494":0.2062472701072693,"495":0.0560358501970768,"496":0.1362459659576416,"497":0.16022777557373047,"498":-0.08790227025747299,"499":-0.11226087808609009,"500":-0.2150227129459381,"501":-0.2896488904953003,"502":-0.02820597030222416,"503":0.07437051832675934,"504":0.1299252063035965,"505":0.1470344066619873,"506":-0.19107738137245178,"507":-0.16267400979995728,"508":-0.12097413092851639,"509":-0.21077029407024384,"510":-0.24726393818855286,"511":-0.3086574673652649,"512":-0.13477756083011627,"513":-0.30590662360191345,"514":-0.1768777221441269,"515":0.29053646326065063,"516":0.6155666708946228,"517":0.5163947939872742,"518":-0.3145153522491455,"519":-0.373773455619812,"520":-0.20441080629825592,"521":-0.10016920417547226,"522":0.13615639507770538,"523":-0.2433682233095169,"524":0.09020990878343582,"525":-0.07082147896289825,"526":-0.14333535730838776,"527":-0.07613083720207214,"528":-0.13608908653259277,"529":-0.07510051131248474,"530":0.032820042222738266,"531":-0.02161528170108795,"532":-0.1107456386089325,"533":0.148807555437088,"534":0.12297555059194565,"535":0.05107498541474342,"536":0.17236971855163574,"537":0.04003956541419029,"538":-0.26173844933509827,"539":-0.3114033043384552,"540":-0.432135671377182,"541":-0.29981115460395813,"542":-0.01396572683006525,"543":0.049760594964027405,"544":0.5544752478599548,"545":0.2792225778102875,"546":-0.5015723705291748,"547":-0.6207005381584167,"548":-0.46028026938438416,"549":-0.33173200488090515,"550":-0.3441641628742218,"551":-0.3915649652481079,"552":-0.010480156168341637,"553":-0.09531249105930328,"554":-0.019046492874622345,"555":-0.06985630095005035,"556":-0.07520987093448639,"557":-0.003958696499466896,"558":-0.10115498304367065,"559":0.1983145773410797,"560":0.1732197403907776,"561":0.07667890936136246,"562":0.03163624927401543,"563":0.15556316077709198,"564":0.2110910415649414,"565":-0.28928840160369873,"566":-0.45613425970077515,"567":-0.21968530118465424,"568":-0.25462862849235535,"569":-0.4455467760562897,"570":0.02190084382891655,"571":0.2979503571987152,"572":0.048803120851516724,"573":-0.26380297541618347,"574":-0.5151702761650085,"575":-0.47246772050857544,"576":-0.5206717252731323,"577":-0.6260999441146851,"578":-0.5286738276481628,"579":-0.35034874081611633,"580":-0.15793496370315552,"581":-0.26094359159469604,"582":-0.08690409362316132,"583":0.004779941868036985,"584":-0.06044229120016098,"585":-0.14289630949497223,"586":-0.056544363498687744,"587":-0.09348311275243759,"588":-0.007500577252358198,"589":0.03744201734662056,"590":-0.14839580655097961,"591":-0.2107328623533249,"592":-0.050605352967977524,"593":-0.17569994926452637,"594":0.10250549018383026,"595":0.1602429300546646,"596":0.06064579263329506,"597":-0.24955451488494873,"598":0.15217944979667664,"599":0.3452654182910919,"600":0.285418838262558,"601":-0.15716905891895294,"602":-0.6900038719177246,"603":-0.9245742559432983,"604":-0.6246145963668823,"605":-0.7179950475692749,"606":-0.399892121553421,"607":-0.45212322473526,"608":-0.39026448130607605,"609":-0.2288326621055603,"610":-0.31039926409721375,"611":-0.13634976744651794,"612":0.041662946343421936,"613":0.15181799232959747,"614":-0.08537277579307556,"615":-0.019016306847333908,"616":0.08166748285293579,"617":0.014767489396035671,"618":-0.07913736999034882,"619":-0.1207345500588417,"620":0.12463948875665665,"621":0.3112839460372925,"622":0.14911672472953796,"623":0.10020004212856293,"624":0.027454355731606483,"625":0.14762066304683685,"626":-0.018353374674916267,"627":0.42499586939811707,"628":0.42070484161376953,"629":-0.09797901660203934,"630":-0.7175031304359436,"631":-0.7804775238037109,"632":-0.863097608089447,"633":-0.5333108901977539,"634":-0.39799121022224426,"635":-0.33045661449432373,"636":-0.29120826721191406,"637":0.02870166301727295,"638":0.07867638766765594,"639":-0.2827339470386505,"640":0.09179448336362839,"641":-0.10437431186437607,"642":-0.10436336696147919,"643":0.001693334081210196,"644":0.02336949296295643,"645":0.14087259769439697,"646":0.06395400315523148,"647":-0.09565643221139908,"648":0.29486995935440063,"649":0.27938035130500793,"650":-0.05250071734189987,"651":0.21694834530353546,"652":0.17688071727752686,"653":0.1487811952829361,"654":0.3567955493927002,"655":0.3620060384273529,"656":0.3193548321723938,"657":0.2000366449356079,"658":-0.28920844197273254,"659":-0.8648258447647095,"660":-0.7759550213813782,"661":-0.6179776787757874,"662":-0.37000247836112976,"663":-0.1511523276567459,"664":-0.4544932544231415,"665":-0.32167747616767883,"666":-0.17243418097496033,"667":-0.29704758524894714,"668":0.09222675859928131,"669":-0.05566873773932457,"670":0.00801333598792553,"671":0.11620846390724182,"672":-0.054884761571884155,"673":0.08020120114088058,"674":0.177350714802742,"675":-0.1251274198293686,"676":0.27894818782806396,"677":0.22641722857952118,"678":0.006316926795989275,"679":0.08346234261989594,"680":0.1861725151538849,"681":0.042954448610544205,"682":0.32067108154296875,"683":0.2551283836364746,"684":0.4566859304904938,"685":0.0866115391254425,"686":-0.4771684408187866,"687":-0.8729318976402283,"688":-0.9387044906616211,"689":-0.8566156029701233,"690":-0.4143352210521698,"691":-0.5469573140144348,"692":-0.1959197223186493,"693":-0.2114405781030655,"694":0.05296650901436806,"695":-0.26691964268684387,"696":0.07705612480640411,"697":-0.026994308456778526,"698":0.049100205302238464,"699":-0.09048989415168762,"700":-0.19978205859661102,"701":0.04950042441487312,"702":-0.17026543617248535,"703":-0.1426078826189041,"704":-0.05768834799528122,"705":0.14237292110919952,"706":0.006613126955926418,"707":-0.10391813516616821,"708":-0.06218831241130829,"709":0.06821112334728241,"710":0.08351005613803864,"711":0.4000183343887329,"712":0.3789433240890503,"713":0.15243102610111237,"714":-0.31092381477355957,"715":-0.30819475650787354,"716":-0.6342499852180481,"717":-0.3395480215549469,"718":-0.37799185514450073,"719":-0.08144339919090271,"720":-0.08095719665288925,"721":-0.03457662835717201,"722":0.1433139145374298,"723":-0.05571026727557182,"724":0.09498082846403122,"725":0.00767583679407835,"726":0.15683479607105255,"727":0.1674794852733612,"728":-0.0916043370962143,"729":0.14045807719230652,"730":-0.030352827161550522,"731":-0.1526300013065338,"732":0.05046326294541359,"733":0.036076001822948456,"734":-0.03836067020893097,"735":-0.1093025803565979,"736":0.04242759570479393,"737":0.05049087107181549,"738":-0.19960922002792358,"739":-0.0774465873837471,"740":0.015576725825667381,"741":0.011871512979269028,"742":0.1808651238679886,"743":0.04249083250761032,"744":-0.14159825444221497,"745":-0.18294554948806763,"746":-0.02701171301305294,"747":-0.17470060288906097,"748":-0.14923886954784393,"749":-0.008295844309031963,"750":-0.00781137915328145,"751":-0.04694540053606033,"752":-0.18674057722091675,"753":-0.10542929172515869,"754":0.17843756079673767,"755":-0.07668830454349518,"756":0.09919710457324982,"757":0.10941043496131897,"758":-0.07145699858665466,"759":-0.0600079745054245,"760":0.0683831125497818,"761":-0.1867436170578003,"762":0.07919270545244217,"763":-0.030126823112368584,"764":0.16146446764469147,"765":0.15951001644134521,"766":0.07035107910633087,"767":-0.11324707418680191,"768":0.014103418216109276,"769":0.05411911383271217,"770":-0.14756059646606445,"771":-0.042780812829732895,"772":-0.058883439749479294,"773":-0.0998467355966568,"774":-0.0999523252248764,"775":0.10403063148260117,"776":-0.14107124507427216,"777":-0.07546962052583694,"778":0.10878138244152069,"779":-0.07402544468641281,"780":-0.13864567875862122,"781":-0.03919098898768425,"782":0.19233646988868713,"783":-0.041438426822423935}},"2":{"bias":-0.5439237356185913,"weights":{"0":0.10746629536151886,"1":0.10564891993999481,"2":-0.007083488162606955,"3":0.16480688750743866,"4":0.15259507298469543,"5":0.1192559078335762,"6":-0.0017708158120512962,"7":0.03555479273200035,"8":0.10285855084657669,"9":-0.07302527129650116,"10":-0.08766701817512512,"11":-0.0533650703728199,"12":-0.04561967775225639,"13":-0.027754273265600204,"14":0.024767566472291946,"15":0.001568798441439867,"16":0.05872150883078575,"17":0.0530712828040123,"18":0.15314321219921112,"19":0.019212177023291588,"20":0.08856905251741409,"21":0.09535703808069229,"22":0.03301094099879265,"23":-0.02815820835530758,"24":-0.12176557630300522,"25":0.16651903092861176,"26":0.05412783473730087,"27":0.006285134702920914,"28":-0.19903512299060822,"29":0.033749669790267944,"30":0.13063618540763855,"31":0.08965975791215897,"32":0.1768159717321396,"33":0.16942492127418518,"34":-0.021727748215198517,"35":-0.09058935195207596,"36":-0.020063253119587898,"37":0.0003586992097552866,"38":0.14563146233558655,"39":-0.10731016099452972,"40":-0.19679759442806244,"41":0.09317433834075928,"42":0.11067752540111542,"43":0.12283767759799957,"44":0.048726413398981094,"45":-0.16901081800460815,"46":-0.1103498637676239,"47":-0.0017051983159035444,"48":0.15991008281707764,"49":-0.0810432881116867,"50":0.06958374381065369,"51":-0.16788288950920105,"52":-0.14634360373020172,"53":-0.033633310347795486,"54":0.09230393171310425,"55":-0.005012355744838715,"56":-0.03489945828914642,"57":0.06134429946541786,"58":-0.15769250690937042,"59":0.10029935836791992,"60":0.02651408314704895,"61":-0.15180239081382751,"62":-0.15861918032169342,"63":0.12300039827823639,"64":-0.13634991645812988,"65":-0.08367860317230225,"66":-0.014909776858985424,"67":-0.14050988852977753,"68":-0.0573858842253685,"69":-0.17192871868610382,"70":-0.06205638870596886,"71":-0.0990699976682663,"72":0.04356539994478226,"73":-0.1094890907406807,"74":0.08603973686695099,"75":-0.13713550567626953,"76":0.1632346361875534,"77":-0.07504879683256149,"78":-0.06970194727182388,"79":-0.02802489884197712,"80":-0.027613064274191856,"81":0.18283957242965698,"82":-0.10461361706256866,"83":-0.13890127837657928,"84":0.16855216026306152,"85":-0.13953235745429993,"86":0.1702253818511963,"87":0.16996751725673676,"88":-0.11706793308258057,"89":-0.03090401366353035,"90":0.0884733498096466,"91":-0.10443629324436188,"92":-0.019688552245497704,"93":-0.14066895842552185,"94":-0.1679711490869522,"95":0.10094137489795685,"96":-0.09301481395959854,"97":0.13159170746803284,"98":-0.04403013363480568,"99":0.00208028731867671,"100":-0.1560496836900711,"101":0.09801959246397018,"102":0.0692734569311142,"103":0.2139059454202652,"104":-0.007147884927690029,"105":0.15747544169425964,"106":0.006241003517061472,"107":0.13080137968063354,"108":-0.13002917170524597,"109":0.2118477076292038,"110":-0.10366732627153397,"111":0.07691162079572678,"112":-0.10749436169862747,"113":0.06328221410512924,"114":-0.19987903535366058,"115":0.07408330589532852,"116":0.018924497067928314,"117":-0.14126190543174744,"118":0.09749487042427063,"119":-0.021963533014059067,"120":-0.3188304007053375,"121":0.06873314827680588,"122":0.10325857251882553,"123":-0.03152085095643997,"124":0.16239386796951294,"125":0.0821642130613327,"126":0.21345125138759613,"127":0.2969468832015991,"128":0.2295718938112259,"129":0.33907532691955566,"130":0.2570607364177704,"131":0.010039054788649082,"132":0.07972521334886551,"133":0.3352862298488617,"134":-0.042188502848148346,"135":0.14182457327842712,"136":0.023723680526018143,"137":0.25368204712867737,"138":0.18094459176063538,"139":-0.0703977718949318,"140":0.10370586812496185,"141":0.05209670960903168,"142":-0.1004219502210617,"143":-0.12989002466201782,"144":0.11491291970014572,"145":-0.13054926693439484,"146":-0.1549101620912552,"147":-0.005023600999265909,"148":0.025227950885891914,"149":0.24297142028808594,"150":0.43748143315315247,"151":0.14821864664554596,"152":0.29817652702331543,"153":0.15907031297683716,"154":0.6528825163841248,"155":0.2798907160758972,"156":0.3319286108016968,"157":0.5342597961425781,"158":0.31855612993240356,"159":0.1648344248533249,"160":-0.021278763189911842,"161":0.2735956013202667,"162":0.32416534423828125,"163":0.10518704354763031,"164":0.25993141531944275,"165":0.07035314291715622,"166":0.10823199898004532,"167":0.1464216262102127,"168":-0.08863253146409988,"169":0.010737133212387562,"170":0.07521701604127884,"171":0.08822610229253769,"172":-0.06439497321844101,"173":0.24044275283813477,"174":-0.07340406626462936,"175":0.06711295247077942,"176":0.21573559939861298,"177":0.14067703485488892,"178":0.30759161710739136,"179":0.06318151205778122,"180":0.03146354481577873,"181":-0.19511619210243225,"182":0.2353987842798233,"183":0.08371786773204803,"184":0.09984764456748962,"185":-0.1294369101524353,"186":0.3342956602573395,"187":0.394727498292923,"188":0.39002662897109985,"189":-0.2488401085138321,"190":-0.05338716134428978,"191":0.08047212660312653,"192":0.2724680006504059,"193":0.1531684845685959,"194":-0.10384004563093185,"195":-0.008831962011754513,"196":-0.19215935468673706,"197":-0.07463272660970688,"198":0.1956690549850464,"199":-0.15022069215774536,"200":0.20097807049751282,"201":0.1516178995370865,"202":0.23078466951847076,"203":0.11525849252939224,"204":0.38606202602386475,"205":0.3458902835845947,"206":0.4402151107788086,"207":-0.07976721972227097,"208":-0.4459928572177887,"209":-0.124127596616745,"210":-0.009772069752216339,"211":0.020744746550917625,"212":-0.3464270532131195,"213":-0.2689461410045624,"214":-0.04542945325374603,"215":-0.025407573208212852,"216":-0.17351102828979492,"217":-0.32962337136268616,"218":0.15825283527374268,"219":-0.02164529822766781,"220":0.02817160077393055,"221":0.19615298509597778,"222":0.027488401159644127,"223":0.11149198561906815,"224":-0.04891655221581459,"225":-0.16886921226978302,"226":0.1959335207939148,"227":-0.08725176751613617,"228":0.0169416144490242,"229":0.18132561445236206,"230":-0.04604209586977959,"231":0.22884225845336914,"232":0.45959246158599854,"233":0.4163658022880554,"234":0.17165762186050415,"235":0.07804480195045471,"236":-0.001380901550874114,"237":0.011254911310970783,"238":-0.09952393919229507,"239":-0.06971684843301773,"240":-0.10389842838048935,"241":-0.5876336097717285,"242":0.022678950801491737,"243":0.06021163985133171,"244":-0.16954836249351501,"245":-0.022431598976254463,"246":0.13120359182357788,"247":0.029091181233525276,"248":0.31172606348991394,"249":0.2871023416519165,"250":0.059704191982746124,"251":0.06253339350223541,"252":-0.14339880645275116,"253":-0.12654359638690948,"254":0.06402479112148285,"255":-0.10538267344236374,"256":-0.12216293811798096,"257":0.1057574525475502,"258":-0.0288071408867836,"259":0.09271402657032013,"260":0.419054239988327,"261":0.45681822299957275,"262":0.2685556411743164,"263":-0.021385198459029198,"264":0.0549977645277977,"265":-0.050289709120988846,"266":-0.3615323007106781,"267":-0.05144643783569336,"268":-0.23855453729629517,"269":-0.11993946135044098,"270":-0.0737440213561058,"271":0.18622584640979767,"272":0.3491726517677307,"273":0.1599985510110855,"274":0.23900838196277618,"275":0.1748659312725067,"276":0.48707425594329834,"277":0.4333106577396393,"278":0.09342849999666214,"279":-0.09134043008089066,"280":0.11107711493968964,"281":0.12398708611726761,"282":0.11935511231422424,"283":-0.2292761355638504,"284":0.010839746333658695,"285":-0.07317732274532318,"286":-0.04991060122847557,"287":0.3014446794986725,"288":0.14962826669216156,"289":0.17769792675971985,"290":-0.10156446695327759,"291":-0.39071160554885864,"292":0.046973299235105515,"293":0.03536524996161461,"294":-0.15352632105350494,"295":-0.22802549600601196,"296":-0.2182091325521469,"297":0.15592902898788452,"298":0.19762954115867615,"299":0.07756615430116653,"300":0.1721590757369995,"301":0.3051011860370636,"302":0.4413162171840668,"303":0.3778115212917328,"304":0.6159747838973999,"305":0.27442893385887146,"306":0.10863861441612244,"307":-0.010546580888330936,"308":0.11722748726606369,"309":-0.13603706657886505,"310":-0.12868601083755493,"311":-0.11589256674051285,"312":-0.1273321807384491,"313":0.13218539953231812,"314":0.0749402791261673,"315":0.28003737330436707,"316":0.1419912725687027,"317":-0.2765800654888153,"318":-0.23028241097927094,"319":-0.3527090549468994,"320":-0.05018308758735657,"321":0.23856337368488312,"322":-0.13205713033676147,"323":-0.7208027839660645,"324":-0.7227010726928711,"325":-0.18399760127067566,"326":-0.3009175658226013,"327":0.19099992513656616,"328":0.1334793120622635,"329":0.43298575282096863,"330":0.4263623058795929,"331":0.21218332648277283,"332":0.6686033606529236,"333":0.18833549320697784,"334":0.31097203493118286,"335":0.11642900109291077,"336":-0.08544889837503433,"337":0.16974087059497833,"338":-0.1786785125732422,"339":0.01001596450805664,"340":0.032532185316085815,"341":0.03300509974360466,"342":0.24576495587825775,"343":0.18429943919181824,"344":-0.23994560539722443,"345":-0.10017868876457214,"346":-0.2557828724384308,"347":0.07061767578125,"348":0.144259974360466,"349":0.16791334748268127,"350":-0.12137426435947418,"351":-0.6593117117881775,"352":-0.6091105341911316,"353":-0.24923588335514069,"354":0.06696856021881104,"355":0.054286472499370575,"356":0.30137869715690613,"357":0.2533199191093445,"358":0.20297610759735107,"359":0.04454738646745682,"360":0.4515323042869568,"361":0.4387217164039612,"362":0.2500283420085907,"363":-0.05701187625527382,"364":-0.1932324469089508,"365":-0.1325598508119583,"366":-0.04760981351137161,"367":-0.24869100749492645,"368":-0.06467610597610474,"369":0.07360519468784332,"370":-0.014361564069986343,"371":0.04997708648443222,"372":0.24280548095703125,"373":-0.22432996332645416,"374":-0.13920244574546814,"375":-0.16361333429813385,"376":-0.03510614112019539,"377":-0.3512919545173645,"378":-0.15586408972740173,"379":-0.33790817856788635,"380":-0.163906067609787,"381":-0.12367347627878189,"382":-0.017090516164898872,"383":-0.28198227286338806,"384":-0.085529625415802,"385":0.010421358980238438,"386":-0.2815873622894287,"387":0.012173225171864033,"388":0.11642622947692871,"389":0.33552631735801697,"390":0.2317986637353897,"391":-0.12900099158287048,"392":0.061348844319581985,"393":0.03565724566578865,"394":0.007349901832640171,"395":0.030090995132923126,"396":0.16902600228786469,"397":-0.019256476312875748,"398":-0.2857549786567688,"399":-0.09069511294364929,"400":-0.14870060980319977,"401":-0.027217766270041466,"402":-0.2637815475463867,"403":-0.001110280747525394,"404":0.05433321371674538,"405":0.19015802443027496,"406":0.3749196231365204,"407":-0.16816706955432892,"408":-0.4203328788280487,"409":-0.06318635493516922,"410":-0.12729908525943756,"411":-0.16710174083709717,"412":0.12233033776283264,"413":0.12816953659057617,"414":-0.019999049603939056,"415":-0.2685762941837311,"416":0.006139114964753389,"417":0.0445890873670578,"418":0.1732131987810135,"419":0.1438438445329666,"420":-0.1115630716085434,"421":0.08537197858095169,"422":0.06990189850330353,"423":0.022067848592996597,"424":0.22403310239315033,"425":-0.3063980042934418,"426":-0.2818714380264282,"427":-0.6975264549255371,"428":-0.27856704592704773,"429":-0.6357035040855408,"430":-0.028695279732346535,"431":-0.011262879706919193,"432":-0.0016777213895693421,"433":0.5234047770500183,"434":0.17706429958343506,"435":0.1728462129831314,"436":-0.23003533482551575,"437":-0.6230086088180542,"438":-0.6479968428611755,"439":-0.39557337760925293,"440":-0.1580156832933426,"441":-0.32222074270248413,"442":-0.21919137239456177,"443":-0.04849768429994583,"444":-0.21734905242919922,"445":-0.09725024551153183,"446":0.023500265553593636,"447":0.07054135948419571,"448":-0.05917157605290413,"449":-0.07017964124679565,"450":0.18820756673812866,"451":-0.008124183863401413,"452":0.06424173712730408,"453":-0.29979977011680603,"454":-0.1659892350435257,"455":-0.4715826213359833,"456":-0.48300740122795105,"457":-0.7126796841621399,"458":-0.43661049008369446,"459":-0.1150135025382042,"460":0.047874581068754196,"461":0.21957486867904663,"462":0.31590536236763,"463":0.05074324458837509,"464":-0.2529003918170929,"465":-0.4416697025299072,"466":-0.3549371361732483,"467":-0.520765483379364,"468":-0.21871376037597656,"469":0.030001943930983543,"470":-0.10161203891038895,"471":-0.19377674162387848,"472":-0.16700460016727448,"473":-0.025996863842010498,"474":-0.008363930508494377,"475":0.03221165016293526,"476":0.07381919026374817,"477":0.024085981771349907,"478":-0.0011170433135703206,"479":0.22568531334400177,"480":-0.10588923841714859,"481":0.053957149386405945,"482":-0.12175527960062027,"483":-0.05995861068367958,"484":-0.4511668086051941,"485":-0.2454875409603119,"486":-0.450933039188385,"487":-0.25814583897590637,"488":0.21838057041168213,"489":0.3799814283847809,"490":0.3366881012916565,"491":-0.028128858655691147,"492":-0.3942053020000458,"493":-0.8516771197319031,"494":-0.4603019058704376,"495":-0.3110997974872589,"496":-0.24826286733150482,"497":0.10849687457084656,"498":-0.14596521854400635,"499":-0.18751972913742065,"500":-0.0727526843547821,"501":0.08224755525588989,"502":0.09258171170949936,"503":0.030082186684012413,"504":-0.08521360903978348,"505":0.11056152731180191,"506":-0.1565483659505844,"507":-0.03441380336880684,"508":-0.09439593553543091,"509":-0.053327515721321106,"510":0.17142866551876068,"511":-0.1612483561038971,"512":-0.11886806041002274,"513":-0.09418688714504242,"514":-0.14326158165931702,"515":-0.32392600178718567,"516":0.08138728141784668,"517":-0.08027548342943192,"518":-0.2090204954147339,"519":-0.5267162322998047,"520":-0.5247305035591125,"521":-0.3522246181964874,"522":-0.18389299511909485,"523":-0.09391825646162033,"524":-0.05620501935482025,"525":-0.17760667204856873,"526":-0.06357718259096146,"527":0.16627167165279388,"528":0.006946220528334379,"529":-0.14382053911685944,"530":-0.17005404829978943,"531":-0.1022312194108963,"532":0.18363173305988312,"533":-0.17830920219421387,"534":-0.1517162173986435,"535":-0.006025750655680895,"536":0.2129964679479599,"537":0.37013211846351624,"538":0.3097870945930481,"539":0.30718088150024414,"540":0.2860059440135956,"541":-0.025458035990595818,"542":-0.13829375803470612,"543":-0.4422767758369446,"544":-0.07554148882627487,"545":-0.37938711047172546,"546":-0.23107460141181946,"547":-0.6350215077400208,"548":-0.3703469932079315,"549":-0.3660992980003357,"550":-0.0808769166469574,"551":0.08721455186605453,"552":-0.05959821492433548,"553":-0.055023279041051865,"554":-0.052573174238204956,"555":-0.10076039284467697,"556":-0.05121830478310585,"557":0.17480498552322388,"558":0.0288480743765831,"559":0.17472746968269348,"560":-0.03682529926300049,"561":-0.03944997489452362,"562":0.017270343378186226,"563":-0.03225722163915634,"564":-0.03197243809700012,"565":0.0628446713089943,"566":0.2168358564376831,"567":0.4609992206096649,"568":0.06550665944814682,"569":-0.12141615152359009,"570":-0.25941306352615356,"571":-0.1491367220878601,"572":-0.3405081331729889,"573":-0.2882850468158722,"574":-0.3080756664276123,"575":-0.17469526827335358,"576":-0.13754957914352417,"577":0.05999457836151123,"578":0.3403790295124054,"579":-0.03549996018409729,"580":0.1788255125284195,"581":0.030199769884347916,"582":0.04864503815770149,"583":0.08932975679636002,"584":0.06399711966514587,"585":-0.04939800500869751,"586":0.15784645080566406,"587":-0.19752360880374908,"588":0.04832262918353081,"589":0.15633848309516907,"590":0.18188391625881195,"591":-0.07561169564723969,"592":0.17537863552570343,"593":0.11642724275588989,"594":0.41616198420524597,"595":0.5416843295097351,"596":0.2740999162197113,"597":0.35715654492378235,"598":0.06642981618642807,"599":-0.15213629603385925,"600":-0.16566702723503113,"601":0.061006881296634674,"602":0.052829302847385406,"603":0.3457101881504059,"604":0.30498555302619934,"605":0.4611964821815491,"606":0.10849902778863907,"607":0.3065524995326996,"608":-0.0028909901157021523,"609":0.29080116748809814,"610":-0.005633227061480284,"611":0.11518635600805283,"612":-0.012059195898473263,"613":0.08523671329021454,"614":0.13891467452049255,"615":0.027089813724160194,"616":0.07899176329374313,"617":0.06277412176132202,"618":-0.14697062969207764,"619":0.000175013454281725,"620":-0.03317727893590927,"621":-0.14111895859241486,"622":0.06739730387926102,"623":0.3738517761230469,"624":0.5178900361061096,"625":0.40548765659332275,"626":0.11129705607891083,"627":0.2177041918039322,"628":0.02365226484835148,"629":0.14512360095977783,"630":0.2141350954771042,"631":0.8921524882316589,"632":0.6430171132087708,"633":0.5571337342262268,"634":0.5592167377471924,"635":0.13269269466400146,"636":-0.05906648561358452,"637":-0.0354917086660862,"638":0.24690018594264984,"639":0.17236541211605072,"640":0.04340330511331558,"641":-0.18190065026283264,"642":0.035074930638074875,"643":0.19760093092918396,"644":-0.07898949831724167,"645":0.11412522196769714,"646":-0.09496182203292847,"647":-0.15169048309326172,"648":-0.1527845859527588,"649":0.01630883850157261,"650":0.03222255781292915,"651":0.07940695434808731,"652":0.42783939838409424,"653":0.4859500229358673,"654":0.520614743232727,"655":0.44160571694374084,"656":0.7434390783309937,"657":0.45650723576545715,"658":0.18682876229286194,"659":0.6803438067436218,"660":0.722663938999176,"661":0.860083281993866,"662":0.6803494095802307,"663":0.3672600984573364,"664":0.35778433084487915,"665":-0.06771759688854218,"666":0.14940176904201508,"667":0.21878007054328918,"668":0.18453778326511383,"669":0.13988885283470154,"670":-0.1052248552441597,"671":-0.002642328618094325,"672":0.13264529407024384,"673":0.18348529934883118,"674":-0.19507843255996704,"675":-0.05748799443244934,"676":-0.2512039542198181,"677":-0.015382780693471432,"678":-0.3190034031867981,"679":-0.07143083214759827,"680":0.04643283784389496,"681":0.5144652128219604,"682":0.5419006943702698,"683":0.4913408160209656,"684":0.6188265681266785,"685":0.6194000244140625,"686":0.8341004252433777,"687":0.35447460412979126,"688":0.4319625496864319,"689":0.39927077293395996,"690":0.7534089684486389,"691":0.34102922677993774,"692":0.0413799025118351,"693":0.1969723403453827,"694":0.018223483115434647,"695":-0.08647125214338303,"696":-0.11987906694412231,"697":-0.09761402010917664,"698":-0.0026766913942992687,"699":-0.10559139400720596,"700":0.16536566615104675,"701":0.19586366415023804,"702":-0.07615233957767487,"703":0.02997971512377262,"704":-0.11202187091112137,"705":-0.26000335812568665,"706":-0.20982155203819275,"707":-0.1911020427942276,"708":0.0879288837313652,"709":0.014757364988327026,"710":-0.03988969326019287,"711":0.3590075969696045,"712":0.2510668635368347,"713":0.43080756068229675,"714":0.5281411409378052,"715":0.2049722671508789,"716":-0.08521725237369537,"717":0.37360602617263794,"718":0.2665588855743408,"719":0.13024690747261047,"720":0.22837840020656586,"721":-0.030594125390052795,"722":-0.045006100088357925,"723":0.11239030957221985,"724":-0.051298122853040695,"725":-0.09473851323127747,"726":0.16024433076381683,"727":0.09690485894680023,"728":0.1717900186777115,"729":-0.053017523139715195,"730":0.08209753036499023,"731":-0.16666577756404877,"732":0.11337225139141083,"733":0.09528838098049164,"734":0.05977516621351242,"735":0.1117267981171608,"736":0.06386841088533401,"737":-0.028313303366303444,"738":0.11071989685297012,"739":-0.16296468675136566,"740":-0.052675120532512665,"741":0.3140732944011688,"742":0.16662642359733582,"743":-0.03707648441195488,"744":0.13997910916805267,"745":-0.08121998608112335,"746":-0.04898977652192116,"747":-0.10164766013622284,"748":0.08535583317279816,"749":0.10977645963430405,"750":-0.08208867907524109,"751":0.19092419743537903,"752":0.13669386506080627,"753":0.017367282882332802,"754":-0.1808079183101654,"755":-0.05623706430196762,"756":0.09253575652837753,"757":0.05559655651450157,"758":0.15063981711864471,"759":-0.1157899796962738,"760":-0.07411587238311768,"761":0.1764463484287262,"762":0.198961079120636,"763":0.1367988884449005,"764":0.002747905906289816,"765":-0.1654486358165741,"766":-0.1675526201725006,"767":-0.10207687318325043,"768":0.010071656666696072,"769":-0.10327401757240295,"770":0.05477742478251457,"771":0.04663147032260895,"772":-0.19708821177482605,"773":-0.23994950950145721,"774":-0.03880609944462776,"775":0.17200301587581635,"776":0.13124988973140717,"777":0.16492138803005219,"778":0.04090595245361328,"779":0.143501415848732,"780":0.016758453100919724,"781":-0.12672588229179382,"782":-0.024312064051628113,"783":0.007167892996221781}},"3":{"bias":0.16959267854690552,"weights":{"0":0.10032165795564651,"1":0.15419545769691467,"2":-0.031237775459885597,"3":-0.015838298946619034,"4":0.07946761697530746,"5":-0.005857384297996759,"6":-0.029537757858633995,"7":-0.02146165445446968,"8":0.047052592039108276,"9":-0.09465023875236511,"10":0.19252513349056244,"11":0.1795043796300888,"12":-0.1262809783220291,"13":0.09696904569864273,"14":0.15055619180202484,"15":0.14263571798801422,"16":-0.05276725813746452,"17":0.12078844755887985,"18":0.08312684297561646,"19":0.17143727838993073,"20":0.06336207687854767,"21":0.002570308046415448,"22":-0.03622162714600563,"23":0.044363055378198624,"24":0.1851201206445694,"25":-0.16592825949192047,"26":-0.07341302186250687,"27":0.19799372553825378,"28":0.05127701535820961,"29":-0.0697619765996933,"30":-0.15914013981819153,"31":0.04751522094011307,"32":0.06364120543003082,"33":-0.020876018330454826,"34":0.12458156794309616,"35":0.05356401577591896,"36":0.06302684545516968,"37":0.09926485270261765,"38":0.07588362693786621,"39":-0.13923466205596924,"40":-0.14913691580295563,"41":-0.19192267954349518,"42":-0.050109587609767914,"43":-0.12442777305841446,"44":0.1848863959312439,"45":-0.04463312402367592,"46":-0.00000320661411024048,"47":-0.17258645594120026,"48":-0.1102471873164177,"49":-0.04002068191766739,"50":0.023025935515761375,"51":-0.179173082113266,"52":-0.18698613345623016,"53":0.15924663841724396,"54":-0.16682100296020508,"55":0.08151967823505402,"56":0.12528468668460846,"57":0.14730174839496613,"58":-0.017245611175894737,"59":-0.12563304603099823,"60":0.1603488326072693,"61":0.0009351101471111178,"62":-0.021356526762247086,"63":-0.1448896825313568,"64":0.18241339921951294,"65":0.09145384281873703,"66":-0.17716985940933228,"67":0.03647558018565178,"68":0.08562643080949783,"69":-0.10271147638559341,"70":0.16889351606369019,"71":0.18442514538764954,"72":0.18806803226470947,"73":-0.07170622050762177,"74":-0.12559884786605835,"75":-0.011794588528573513,"76":0.030311575159430504,"77":-0.1716080904006958,"78":0.09762009233236313,"79":0.11228901147842407,"80":-0.21602441370487213,"81":0.13974745571613312,"82":-0.04711262136697769,"83":-0.007584226783365011,"84":-0.050959836691617966,"85":0.1698226034641266,"86":0.07566599547863007,"87":-0.1454075127840042,"88":-0.023112304508686066,"89":-0.15288278460502625,"90":-0.16598132252693176,"91":-0.012583756819367409,"92":0.13737593591213226,"93":-0.1407581865787506,"94":-0.01589188538491726,"95":0.20667946338653564,"96":0.16077052056789398,"97":-0.0715336725115776,"98":0.03342152759432793,"99":-0.08650144934654236,"100":0.16979794204235077,"101":-0.008706282824277878,"102":0.11268331110477448,"103":0.04628857597708702,"104":0.2559714913368225,"105":-0.10137104243040085,"106":0.12542855739593506,"107":-0.13765552639961243,"108":-0.07160293310880661,"109":-0.10941178351640701,"110":0.1180085837841034,"111":-0.05133361741900444,"112":-0.11761738359928131,"113":0.15205366909503937,"114":0.06902562826871872,"115":-0.0869283676147461,"116":-0.027302948758006096,"117":0.16311560571193695,"118":-0.06845469772815704,"119":0.010022039525210857,"120":-0.1885785460472107,"121":-0.014742724597454071,"122":-0.10935257375240326,"123":-0.24010595679283142,"124":0.07896135747432709,"125":-0.13854017853736877,"126":-0.27082502841949463,"127":-0.3116280138492584,"128":-0.08140312880277634,"129":0.030769212171435356,"130":-0.15601123869419098,"131":0.19107316434383392,"132":0.30886033177375793,"133":-0.03445420041680336,"134":-0.19707755744457245,"135":-0.24130508303642273,"136":-0.021041294559836388,"137":-0.027653761208057404,"138":-0.01783970557153225,"139":-0.18055832386016846,"140":0.07440848648548126,"141":0.11204706877470016,"142":0.18781647086143494,"143":-0.1581815928220749,"144":-0.1935078352689743,"145":-0.15220065414905548,"146":-0.09227891266345978,"147":-0.3084261119365692,"148":-0.24257530272006989,"149":-0.34765753149986267,"150":-0.1967589557170868,"151":-0.09651599079370499,"152":0.21375426650047302,"153":-0.04304329678416252,"154":0.20167873799800873,"155":-0.053649622946977615,"156":0.07744548469781876,"157":0.16892844438552856,"158":0.21070224046707153,"159":-0.1282118260860443,"160":0.2054966390132904,"161":0.1412447988986969,"162":0.048308469355106354,"163":-0.06837797164916992,"164":0.05526367574930191,"165":-0.0918758288025856,"166":-0.06978120654821396,"167":-0.19216221570968628,"168":0.17227381467819214,"169":-0.13478727638721466,"170":0.1305137723684311,"171":-0.15187625586986542,"172":0.03345322981476784,"173":-0.22616852819919586,"174":-0.16604457795619965,"175":-0.07372397929430008,"176":-0.13504472374916077,"177":-0.17864786088466644,"178":-0.19614778459072113,"179":-0.20173519849777222,"180":-0.13940756022930145,"181":-0.2886597216129303,"182":-0.2951868772506714,"183":-0.5055117011070251,"184":-0.26484018564224243,"185":0.040834181010723114,"186":0.057475630193948746,"187":0.16703282296657562,"188":0.13661667704582214,"189":0.08603515475988388,"190":0.04962054640054703,"191":0.22369243204593658,"192":-0.08376207202672958,"193":-0.12800125777721405,"194":0.14039112627506256,"195":0.07668168842792511,"196":0.13970528542995453,"197":-0.19284866750240326,"198":-0.005556799471378326,"199":-0.0008163306047208607,"200":0.02844141237437725,"201":0.15865331888198853,"202":-0.1363661140203476,"203":0.14752250909805298,"204":-0.27155089378356934,"205":-0.1923801302909851,"206":-0.5905680060386658,"207":-0.3372032940387726,"208":-0.42549195885658264,"209":0.038359832018613815,"210":-0.17826543748378754,"211":-0.16407902538776398,"212":-0.24582476913928986,"213":-0.25642129778862,"214":0.06021513789892197,"215":-0.10582105070352554,"216":0.07016158849000931,"217":-0.04215399920940399,"218":0.08869604021310806,"219":0.007741073612123728,"220":-0.16606420278549194,"221":0.11211777478456497,"222":0.0895184725522995,"223":-0.10196546465158463,"224":-0.07686017453670502,"225":0.04647674039006233,"226":-0.08367972075939178,"227":-0.0786355659365654,"228":-0.14594495296478271,"229":0.09216272830963135,"230":0.22337903082370758,"231":0.22931168973445892,"232":-0.08086557686328888,"233":-0.028855152428150177,"234":0.2909819185733795,"235":-0.00486481050029397,"236":-0.2171279937028885,"237":0.10059013962745667,"238":-0.2867656350135803,"239":-0.4405736029148102,"240":-0.08720254898071289,"241":-0.23550045490264893,"242":-0.1438615620136261,"243":-0.026281369850039482,"244":-0.16497470438480377,"245":-0.23459982872009277,"246":-0.046901993453502655,"247":0.08727753162384033,"248":-0.22460909187793732,"249":0.028231848031282425,"250":-0.20135179162025452,"251":-0.04352344572544098,"252":0.13587583601474762,"253":0.06492263823747635,"254":-0.04227437078952789,"255":-0.18418154120445251,"256":0.1627063900232315,"257":-0.10824280232191086,"258":-0.041802793741226196,"259":0.22025619447231293,"260":0.2852712571620941,"261":0.3262057900428772,"262":0.47953319549560547,"263":0.2322760969400406,"264":0.2033439725637436,"265":-0.01881059631705284,"266":-0.5705074667930603,"267":-0.37649136781692505,"268":-0.4235314130783081,"269":-0.45741966366767883,"270":-0.26950839161872864,"271":0.023851303383708,"272":0.08452105522155762,"273":-0.17415180802345276,"274":0.0975029394030571,"275":0.14719413220882416,"276":-0.011132431216537952,"277":0.01544264703989029,"278":-0.15564006567001343,"279":0.09209583699703217,"280":-0.14227508008480072,"281":0.12721499800682068,"282":-0.03973564878106117,"283":-0.06642260402441025,"284":-0.1642206311225891,"285":-0.1534826159477234,"286":-0.04793700575828552,"287":0.31632062792778015,"288":0.13095135986804962,"289":0.5861449241638184,"290":0.06697166711091995,"291":-0.11576146632432938,"292":-0.03444662690162659,"293":0.01663874089717865,"294":-0.10585428774356842,"295":0.12217886000871658,"296":-0.21894840896129608,"297":-0.08861339092254639,"298":-0.028171826153993607,"299":-0.18818461894989014,"300":0.13799817860126495,"301":0.07947210222482681,"302":0.08379853516817093,"303":0.21470002830028534,"304":-0.0922270268201828,"305":-0.1940496861934662,"306":0.014412568882107735,"307":0.10935802757740021,"308":0.08636108785867691,"309":-0.056343887001276016,"310":0.08290616422891617,"311":-0.0052605667151510715,"312":-0.13570666313171387,"313":0.04086082801222801,"314":0.04561135545372963,"315":-0.07444833219051361,"316":0.2403510957956314,"317":0.11281275749206543,"318":-0.025126419961452484,"319":-0.09489206224679947,"320":0.0718347579240799,"321":-0.19642888009548187,"322":0.12492872774600983,"323":0.24154141545295715,"324":0.16202154755592346,"325":0.04041310027241707,"326":0.054831430315971375,"327":0.02466496266424656,"328":0.19959767162799835,"329":0.336923211812973,"330":0.33361753821372986,"331":0.3318620026111603,"332":0.018537845462560654,"333":-0.1698264330625534,"334":0.1514122486114502,"335":0.09687609225511551,"336":0.0809951201081276,"337":0.09851907193660736,"338":0.11377856880426407,"339":-0.31617704033851624,"340":-0.07067948579788208,"341":-0.2521677613258362,"342":-0.1035929024219513,"343":0.2523776888847351,"344":0.13176345825195312,"345":-0.0880458876490593,"346":-0.06249541416764259,"347":-0.0724695473909378,"348":0.3933298885822296,"349":0.14426451921463013,"350":0.5068532228469849,"351":0.40075188875198364,"352":0.3857380151748657,"353":0.28010833263397217,"354":0.04223620146512985,"355":0.0435975007712841,"356":0.25620752573013306,"357":0.030431238934397697,"358":0.05337006598711014,"359":0.005460928659886122,"360":0.01647869497537613,"361":0.014564869925379753,"362":0.1825094223022461,"363":-0.13640643656253815,"364":-0.08910311758518219,"365":-0.04564545676112175,"366":-0.17650368809700012,"367":0.015181914903223515,"368":-0.11458268761634827,"369":0.014502204954624176,"370":0.12095939368009567,"371":0.0048049865290522575,"372":0.2481946051120758,"373":0.08656466752290726,"374":-0.14308127760887146,"375":0.033087216317653656,"376":0.1262936294078827,"377":0.5499315857887268,"378":0.48805397748947144,"379":0.40297967195510864,"380":0.6502669453620911,"381":0.15977242588996887,"382":-0.25171077251434326,"383":0.20615430176258087,"384":-0.18860703706741333,"385":0.2624579668045044,"386":0.4090938866138458,"387":0.22850629687309265,"388":0.07116344571113586,"389":0.0010215322254225612,"390":-0.12803572416305542,"391":0.07059188187122345,"392":0.003658378031104803,"393":-0.13342836499214172,"394":-0.11956018954515457,"395":-0.14282260835170746,"396":-0.023635134100914,"397":0.23866848647594452,"398":0.1662444919347763,"399":0.2686498761177063,"400":0.2829664945602417,"401":0.10740253329277039,"402":-0.11412495374679565,"403":0.1314832866191864,"404":0.2696559727191925,"405":0.5024914145469666,"406":0.5165895819664001,"407":-0.008764845319092274,"408":0.35712772607803345,"409":0.5522758960723877,"410":0.18827837705612183,"411":0.08072104305028915,"412":-0.24783824384212494,"413":-0.17275561392307281,"414":-0.01272072084248066,"415":0.24833856523036957,"416":0.11146782338619232,"417":0.23904374241828918,"418":0.09109912812709808,"419":0.1192028820514679,"420":0.032690417021512985,"421":0.06464818865060806,"422":-0.15589667856693268,"423":-0.13234087824821472,"424":0.05612824857234955,"425":0.2984939217567444,"426":0.2068691849708557,"427":0.39998894929885864,"428":0.2665921747684479,"429":0.34101271629333496,"430":0.20539115369319916,"431":0.2637569010257721,"432":0.31188905239105225,"433":0.12258125096559525,"434":-0.11601536720991135,"435":0.4611094295978546,"436":0.6181915402412415,"437":0.6126456260681152,"438":0.22957009077072144,"439":0.10193029791116714,"440":-0.27250227332115173,"441":-0.2469441443681717,"442":-0.2953341603279114,"443":-0.2851627767086029,"444":0.02941715531051159,"445":0.21780045330524445,"446":0.07239335775375366,"447":-0.15965378284454346,"448":-0.09939400851726532,"449":-0.009115462191402912,"450":-0.11902601271867752,"451":0.007727837655693293,"452":0.06697520613670349,"453":0.2658701241016388,"454":0.27854347229003906,"455":0.4962886869907379,"456":0.49819207191467285,"457":0.6151121258735657,"458":0.4028741121292114,"459":0.11298153549432755,"460":-0.008571256883442402,"461":0.2883078157901764,"462":0.46401700377464294,"463":0.6579117178916931,"464":0.39951565861701965,"465":0.230524480342865,"466":-0.14842544496059418,"467":-0.3885315954685211,"468":-0.3761199116706848,"469":-0.3262750506401062,"470":-0.2864307463169098,"471":0.15168757736682892,"472":-0.11880142241716385,"473":0.2484525740146637,"474":-0.09639672189950943,"475":-0.13867641985416412,"476":-0.0791618674993515,"477":0.1467258632183075,"478":0.05578000098466873,"479":0.06474844366312027,"480":-0.007413784507662058,"481":0.2873304784297943,"482":0.6069104671478271,"483":0.7437312602996826,"484":0.836750328540802,"485":1.0897032022476196,"486":1.0241847038269043,"487":0.7238193154335022,"488":0.8985816240310669,"489":0.8109877109527588,"490":1.1430280208587646,"491":0.6587090492248535,"492":0.18933682143688202,"493":-0.2868676781654358,"494":-0.11969434469938278,"495":-0.3669676184654236,"496":-0.3553762435913086,"497":-0.022079138085246086,"498":-0.10772532969713211,"499":-0.041510168462991714,"500":0.10644534975290298,"501":0.2980072796344757,"502":-0.10295943170785904,"503":-0.0821969211101532,"504":-0.14385324716567993,"505":0.0951833724975586,"506":-0.19331490993499756,"507":0.045490819960832596,"508":0.0959189161658287,"509":0.31814122200012207,"510":0.3581928610801697,"511":0.5090360045433044,"512":0.9830349087715149,"513":1.2963223457336426,"514":1.621157169342041,"515":1.768570065498352,"516":1.7566211223602295,"517":0.9606873393058777,"518":0.956695020198822,"519":0.09976429492235184,"520":-0.03928021714091301,"521":-0.5102990865707397,"522":-0.14270798861980438,"523":-0.3685235381126404,"524":-0.3294091522693634,"525":-0.37622544169425964,"526":0.14106230437755585,"527":0.16577276587486267,"528":0.019672369584441185,"529":0.11003221571445465,"530":-0.1744917631149292,"531":-0.1267630010843277,"532":-0.16837038099765778,"533":-0.07432812452316284,"534":-0.2043628841638565,"535":-0.17765185236930847,"536":-0.0593312606215477,"537":-0.10493350028991699,"538":0.01577792875468731,"539":0.471359521150589,"540":0.7578996419906616,"541":0.8523047566413879,"542":1.0661258697509766,"543":1.0942792892456055,"544":0.752163827419281,"545":0.18689218163490295,"546":0.06432313472032547,"547":-0.8154973983764648,"548":-0.13461266458034515,"549":-0.17443406581878662,"550":0.1400834321975708,"551":-0.017393769696354866,"552":-0.26582446694374084,"553":0.01440878864377737,"554":-0.1510266363620758,"555":-0.06651875376701355,"556":-0.022189302369952202,"557":0.16753703355789185,"558":0.156301811337471,"559":-0.1001005470752716,"560":0.029287714511156082,"561":0.10387800633907318,"562":-0.03948856145143509,"563":-0.00986457709223032,"564":0.006560654379427433,"565":0.00280481087975204,"566":-0.10205480456352234,"567":0.3195413649082184,"568":0.5268017053604126,"569":0.07090488821268082,"570":0.4323413074016571,"571":-0.16124168038368225,"572":-0.5280866026878357,"573":-0.5600162148475647,"574":-0.10989198088645935,"575":-0.22551143169403076,"576":-0.0029106319416314363,"577":0.11477719992399216,"578":-0.0857003852725029,"579":-0.19467757642269135,"580":-0.011062964797019958,"581":-0.17896047234535217,"582":-0.07860348373651505,"583":-0.1905343234539032,"584":0.22073586285114288,"585":0.2232210785150528,"586":0.010993842966854572,"587":-0.07116950303316116,"588":0.14531651139259338,"589":-0.09013502299785614,"590":0.15727177262306213,"591":-0.2264818251132965,"592":-0.017222659662365913,"593":-0.1805064082145691,"594":-0.27412495017051697,"595":-0.10362514108419418,"596":0.16980141401290894,"597":-0.05344510078430176,"598":-0.6653611063957214,"599":-0.7010891437530518,"600":-1.0005077123641968,"601":-0.5540112853050232,"602":-0.5306597948074341,"603":-0.3842337429523468,"604":-0.3761555254459381,"605":-0.4251585006713867,"606":-0.29212984442710876,"607":0.00839946698397398,"608":-0.06416703760623932,"609":0.294590562582016,"610":0.19529514014720917,"611":0.00842724833637476,"612":0.06970469653606415,"613":0.2005833238363266,"614":-0.11558789014816284,"615":-0.011336092837154865,"616":-0.010895811021327972,"617":0.1571110635995865,"618":0.12725672125816345,"619":-0.1485692709684372,"620":0.011330359615385532,"621":-0.1793423295021057,"622":0.020749179646372795,"623":-0.18682816624641418,"624":-0.35173407196998596,"625":-0.45896458625793457,"626":-0.744403064250946,"627":-0.5613914132118225,"628":-0.41849005222320557,"629":-0.5277957916259766,"630":-0.25259673595428467,"631":-0.10538138449192047,"632":0.08276481926441193,"633":-0.3470688760280609,"634":-0.016822699457406998,"635":-0.012493436224758625,"636":0.20893870294094086,"637":0.2139781415462494,"638":-0.02636081911623478,"639":0.21858356893062592,"640":0.22418718039989471,"641":0.09673921763896942,"642":-0.07999082654714584,"643":-0.08777222037315369,"644":0.13322167098522186,"645":0.1349530816078186,"646":0.0352441668510437,"647":-0.08012158423662186,"648":0.0950394719839096,"649":-0.11808524280786514,"650":-0.10694675147533417,"651":-0.2967336177825928,"652":-0.511647641658783,"653":-0.6101903319358826,"654":-0.9063659906387329,"655":-0.8420109748840332,"656":-0.30888631939888,"657":-0.439045250415802,"658":0.03268880769610405,"659":0.15346558392047882,"660":0.0525350384414196,"661":0.25200045108795166,"662":0.3796067535877228,"663":0.3476065397262573,"664":0.14738115668296814,"665":0.08813324570655823,"666":0.1731550544500351,"667":0.07507561892271042,"668":-0.06035074591636658,"669":0.1464340090751648,"670":-0.11447687447071075,"671":0.0859273299574852,"672":-0.10745624452829361,"673":0.1792963594198227,"674":0.0952441394329071,"675":0.026783015578985214,"676":-0.16724881529808044,"677":-0.19887885451316833,"678":-0.10289274901151657,"679":-0.49535977840423584,"680":-0.5188705921173096,"681":-0.44959497451782227,"682":-0.2884930968284607,"683":-0.4764891266822815,"684":-0.41126126050949097,"685":-0.36611855030059814,"686":-0.1712712049484253,"687":0.15923446416854858,"688":0.47456595301628113,"689":0.562719464302063,"690":0.47655367851257324,"691":-0.07609770447015762,"692":0.11693014949560165,"693":-0.15254724025726318,"694":-0.11942135542631149,"695":-0.04519977420568466,"696":0.15329255163669586,"697":0.09091631323099136,"698":-0.06878901273012161,"699":0.1300906240940094,"700":0.09235445410013199,"701":0.05021604895591736,"702":-0.04012482240796089,"703":-0.07559432089328766,"704":-0.07762071490287781,"705":-0.048518452793359756,"706":-0.003460126928985119,"707":-0.26333755254745483,"708":-0.29960325360298157,"709":-0.5057875514030457,"710":-0.5114814043045044,"711":-0.4185175597667694,"712":-0.4150046408176422,"713":0.0036318269558250904,"714":0.28383171558380127,"715":0.3462406396865845,"716":0.3065619468688965,"717":0.27583932876586914,"718":0.13041841983795166,"719":-0.1621953397989273,"720":-0.1641336977481842,"721":0.10659091919660568,"722":-0.17640024423599243,"723":0.04338887706398964,"724":-0.1863064020872116,"725":0.07237008959054947,"726":0.07451581209897995,"727":-0.15624766051769257,"728":-0.12233835458755493,"729":0.09551257640123367,"730":-0.14197376370429993,"731":0.10251618176698685,"732":0.04665393754839897,"733":0.13134048879146576,"734":0.13466477394104004,"735":0.07276829332113266,"736":-0.2165827751159668,"737":0.03715663403272629,"738":0.0009596184245310724,"739":0.05926224961876869,"740":0.09482898563146591,"741":0.29041585326194763,"742":0.08123409748077393,"743":0.1349877119064331,"744":-0.05755886808037758,"745":0.05958995968103409,"746":0.0737844929099083,"747":0.06791377812623978,"748":0.08287006616592407,"749":-0.0771365538239479,"750":-0.05326831713318825,"751":-0.06614402681589127,"752":-0.1345483809709549,"753":0.01752191036939621,"754":-0.011470776051282883,"755":-0.12562337517738342,"756":0.12153185158967972,"757":-0.13790519535541534,"758":0.1680147796869278,"759":-0.18474465608596802,"760":-0.13141115009784698,"761":-0.17690719664096832,"762":0.010128623805940151,"763":-0.1771887093782425,"764":0.12956088781356812,"765":-0.2342979460954666,"766":-0.05202475190162659,"767":-0.09970641136169434,"768":0.1172604188323021,"769":-0.07550135254859924,"770":0.0562761053442955,"771":-0.07660859823226929,"772":-0.13413190841674805,"773":0.011854334734380245,"774":0.046679265797138214,"775":-0.00462791882455349,"776":0.18936598300933838,"777":0.07890646159648895,"778":0.05805407091975212,"779":0.1867273598909378,"780":0.183493971824646,"781":0.04309651255607605,"782":0.1607394814491272,"783":0.13838620483875275}},"4":{"bias":-1.0183720588684082,"weights":{"0":-0.18644385039806366,"1":-0.14599284529685974,"2":0.008390070870518684,"3":0.0704469084739685,"4":0.10739528387784958,"5":0.040909308940172195,"6":0.15853093564510345,"7":-0.006995728705078363,"8":0.07019133120775223,"9":-0.01794208213686943,"10":-0.10872137546539307,"11":-0.03473946452140808,"12":0.1572757214307785,"13":-0.1635521650314331,"14":0.07983148097991943,"15":-0.19560489058494568,"16":-0.16246084868907928,"17":-0.18114452064037323,"18":0.011438637971878052,"19":0.13073498010635376,"20":0.05195920169353485,"21":-0.05617693439126015,"22":-0.13371141254901886,"23":0.19441109895706177,"24":0.06955534219741821,"25":0.039216380566358566,"26":-0.034009575843811035,"27":0.156549870967865,"28":-0.07223071902990341,"29":-0.02655806578695774,"30":-0.020398400723934174,"31":0.08336053788661957,"32":-0.06385408341884613,"33":-0.04894319921731949,"34":-0.16644318401813507,"35":0.15156933665275574,"36":0.02701425552368164,"37":0.1603061407804489,"38":0.1830441951751709,"39":0.031491219997406006,"40":0.018135590478777885,"41":0.039600223302841187,"42":0.018579943105578423,"43":0.11516123265028,"44":0.17507408559322357,"45":-0.05473250150680542,"46":0.09057678282260895,"47":0.1946997046470642,"48":0.13751152157783508,"49":-0.16626350581645966,"50":0.17308910191059113,"51":0.06994999945163727,"52":0.09216718375682831,"53":-0.08588365465402603,"54":-0.061105333268642426,"55":-0.05710628256201744,"56":0.11715326458215714,"57":0.1562775820493698,"58":-0.05450871214270592,"59":-0.17854119837284088,"60":0.023523898795247078,"61":-0.09857633709907532,"62":0.0715523362159729,"63":0.18860003352165222,"64":-0.11281316727399826,"65":0.042319465428590775,"66":-0.04754599556326866,"67":0.1476510763168335,"68":0.003559459000825882,"69":-0.11112795770168304,"70":-0.06379305571317673,"71":-0.124834343791008,"72":-0.19871999323368073,"73":0.10363888740539551,"74":0.03488456830382347,"75":0.16209466755390167,"76":-0.06955703347921371,"77":0.05171554535627365,"78":0.002825017785653472,"79":-0.02953186444938183,"80":-0.028528716415166855,"81":-0.03697726130485535,"82":0.016845911741256714,"83":0.09632302075624466,"84":-0.1278151571750641,"85":-0.18771126866340637,"86":-0.19229498505592346,"87":0.011938713490962982,"88":0.08053677529096603,"89":-0.005048079881817102,"90":-0.14221328496932983,"91":0.23030705749988556,"92":-0.1858976036310196,"93":0.15308158099651337,"94":-0.013725397177040577,"95":-0.26524683833122253,"96":-0.013275112956762314,"97":-0.19719122350215912,"98":-0.23241718113422394,"99":0.047625720500946045,"100":-0.08042792230844498,"101":0.06640414893627167,"102":-0.10805477201938629,"103":0.14875760674476624,"104":0.197005033493042,"105":0.02942531555891037,"106":0.20345838367938995,"107":-0.16479213535785675,"108":-0.044044435024261475,"109":0.0005078290123492479,"110":0.16901323199272156,"111":-0.11325561255216599,"112":-0.11125090718269348,"113":0.017016539350152016,"114":0.07586591690778732,"115":-0.13679230213165283,"116":-0.12242001295089722,"117":-0.00019342747691553086,"118":0.09871506690979004,"119":0.3137596845626831,"120":0.33500444889068604,"121":0.1084267720580101,"122":0.01630370318889618,"123":0.03216278925538063,"124":-0.013207300566136837,"125":-0.15089325606822968,"126":-0.2351073920726776,"127":-0.14413030445575714,"128":0.03759421780705452,"129":-0.11488175392150879,"130":-0.18285886943340302,"131":-0.44243332743644714,"132":-0.0973191037774086,"133":-0.04454183951020241,"134":-0.0017250132514163852,"135":0.09342934936285019,"136":0.11041818559169769,"137":-0.04823208972811699,"138":0.17309990525245667,"139":-0.07116281241178513,"140":-0.18705879151821136,"141":-0.1805650293827057,"142":-0.09176894277334213,"143":-0.06792012602090836,"144":-0.1541488617658615,"145":0.12571731209754944,"146":-0.06504462659358978,"147":-0.003848796943202615,"148":-0.03588190674781799,"149":0.16854821145534515,"150":-0.0058615137822926044,"151":-0.1784311830997467,"152":-0.0815381109714508,"153":0.045714933425188065,"154":-0.2555665969848633,"155":-0.05179882049560547,"156":0.2127852588891983,"157":-0.18231403827667236,"158":-0.2324022650718689,"159":-0.38244324922561646,"160":-0.4571782350540161,"161":-0.16820304095745087,"162":0.1457601636648178,"163":0.20429041981697083,"164":0.20603615045547485,"165":0.2974550724029541,"166":0.08181719481945038,"167":-0.10773948580026627,"168":0.11376310884952545,"169":-0.06894346326589584,"170":0.12375178933143616,"171":0.08296327292919159,"172":0.0410480760037899,"173":0.12694069743156433,"174":0.3276216685771942,"175":0.29780012369155884,"176":0.03207843750715256,"177":0.15015102922916412,"178":0.3676912486553192,"179":-0.0434800386428833,"180":0.01758638583123684,"181":0.2108750194311142,"182":-0.23006591200828552,"183":0.01984408311545849,"184":0.013657460920512676,"185":-0.17462585866451263,"186":-0.242620050907135,"187":-0.10054932534694672,"188":-0.4958767592906952,"189":-0.35070526599884033,"190":-0.06597459316253662,"191":0.28672298789024353,"192":0.38449016213417053,"193":-0.011628356762230396,"194":0.07111813873052597,"195":0.05655471235513687,"196":-0.042851634323596954,"197":0.15665297210216522,"198":0.07303892821073532,"199":0.17342504858970642,"200":0.10812156647443771,"201":0.2292305827140808,"202":0.06985244899988174,"203":0.2620604336261749,"204":0.2798784077167511,"205":0.17459416389465332,"206":0.2558848559856415,"207":0.06750424206256866,"208":0.21973271667957306,"209":-0.08916110545396805,"210":-0.04902924597263336,"211":-0.24563181400299072,"212":-0.19086143374443054,"213":-0.32967156171798706,"214":-0.1639200896024704,"215":0.15961942076683044,"216":0.034019358456134796,"217":-0.1452823430299759,"218":-0.2765537202358246,"219":-0.2542791962623596,"220":0.051093652844429016,"221":-0.019152909517288208,"222":-0.1600746512413025,"223":-0.1144397109746933,"224":-0.14815421402454376,"225":0.1541443020105362,"226":-0.17177097499370575,"227":0.1347135305404663,"228":-0.04902185499668121,"229":0.4874281585216522,"230":-0.05388142541050911,"231":0.1954745501279831,"232":0.1814768761396408,"233":0.25453299283981323,"234":-0.013146532699465752,"235":0.24814529716968536,"236":0.1374756395816803,"237":0.03674521669745445,"238":-0.20568802952766418,"239":-0.08949649333953857,"240":0.029439913108944893,"241":-0.1299164742231369,"242":-0.09987826645374298,"243":0.02026105485856533,"244":0.08056285232305527,"245":-0.07256338745355606,"246":0.10502355545759201,"247":0.07354039698839188,"248":0.29722726345062256,"249":0.04937194660305977,"250":0.26115840673446655,"251":0.011185366660356522,"252":-0.06304650753736496,"253":-0.1857011765241623,"254":-0.0620613768696785,"255":0.18143081665039062,"256":0.0073596942238509655,"257":-0.13285821676254272,"258":-0.07949583232402802,"259":0.26696106791496277,"260":0.28416991233825684,"261":0.20042987167835236,"262":0.20568864047527313,"263":0.2279905527830124,"264":0.06268877536058426,"265":-0.11388750374317169,"266":0.06360730528831482,"267":-0.43798646330833435,"268":0.06471438705921173,"269":0.1258830428123474,"270":-0.02036534622311592,"271":-0.007149599492549896,"272":0.26524174213409424,"273":0.08972261846065521,"274":-0.036809392273426056,"275":0.32546550035476685,"276":0.14229907095432281,"277":0.30597060918807983,"278":0.11990197747945786,"279":0.15797141194343567,"280":0.022344287484884262,"281":-0.008460236713290215,"282":-0.12970413267612457,"283":-0.1722533106803894,"284":-0.04405410587787628,"285":-0.10990248620510101,"286":-0.26582929491996765,"287":-0.07465770095586777,"288":-0.11200758814811707,"289":0.3275221288204193,"290":0.07925409823656082,"291":0.012347572483122349,"292":0.13888347148895264,"293":0.17233847081661224,"294":-0.3191167116165161,"295":-0.020565781742334366,"296":-0.0550244115293026,"297":-0.03163217008113861,"298":-0.0009742868132889271,"299":0.11603600531816483,"300":-0.336759477853775,"301":-0.30577003955841064,"302":-0.11021409928798676,"303":-0.013631217181682587,"304":0.0686902105808258,"305":0.3249672055244446,"306":0.1409478634595871,"307":-0.0007962028030306101,"308":0.027153005823493004,"309":0.08796228468418121,"310":0.016896836459636688,"311":0.005205702502280474,"312":-0.36339071393013,"313":-0.3242453336715698,"314":0.03021843545138836,"315":0.23552975058555603,"316":-0.058286674320697784,"317":0.11160039156675339,"318":-0.06936638802289963,"319":0.14876097440719604,"320":0.16763468086719513,"321":0.06152234226465225,"322":0.20352855324745178,"323":-0.07732129096984863,"324":-0.2168910801410675,"325":0.07338649034500122,"326":0.2517993748188019,"327":-0.08467300236225128,"328":-0.11424679309129715,"329":-0.08588694036006927,"330":0.22527430951595306,"331":0.15671104192733765,"332":0.18232248723506927,"333":0.2611897587776184,"334":0.24035704135894775,"335":0.13994741439819336,"336":0.1934746354818344,"337":0.05117099732160568,"338":-0.147259920835495,"339":-0.00899016484618187,"340":-0.1259506195783615,"341":-0.5140813589096069,"342":-0.0954117700457573,"343":0.1177169680595398,"344":0.3901997208595276,"345":-0.23252125084400177,"346":0.09179040789604187,"347":0.18714569509029388,"348":0.41168472170829773,"349":0.5765225887298584,"350":0.2751111686229706,"351":-0.11351151019334793,"352":-0.19143909215927124,"353":0.18660160899162292,"354":0.43266668915748596,"355":0.09839292615652084,"356":-0.11710936576128006,"357":-0.14817726612091064,"358":0.10329583287239075,"359":0.12676198780536652,"360":0.09436583518981934,"361":0.23086120188236237,"362":0.19208161532878876,"363":-0.005399460904300213,"364":0.18216383457183838,"365":-0.0012360543478280306,"366":-0.16585390269756317,"367":-0.17552512884140015,"368":-0.3422233760356903,"369":-0.234424889087677,"370":-0.1351086050271988,"371":0.2199665904045105,"372":0.27371877431869507,"373":0.19491003453731537,"374":0.20021507143974304,"375":0.30605411529541016,"376":0.19766339659690857,"377":0.6926403641700745,"378":0.4243336617946625,"379":0.22945600748062134,"380":0.2942119240760803,"381":-0.04593813046813011,"382":-0.13576622307300568,"383":-0.12154652923345566,"384":0.1869657337665558,"385":0.1027853712439537,"386":-0.11741147935390472,"387":-0.0804210901260376,"388":-0.08362648636102676,"389":0.16324685513973236,"390":0.03445518761873245,"391":0.05827754735946655,"392":0.13158905506134033,"393":-0.1947231888771057,"394":0.1712665557861328,"395":-0.24205756187438965,"396":-0.17928580939769745,"397":-0.5355056524276733,"398":-0.3298411965370178,"399":-0.0267478097230196,"400":0.051352228969335556,"401":0.3127387762069702,"402":0.42506667971611023,"403":0.18375477194786072,"404":0.4143434464931488,"405":0.34674686193466187,